{"learner":{"attributes":{"best_iteration":"17","best_score":"0.789865","scikit_learn":"{\"use_label_encoder\": true, \"n_estimators\": 100, \"objective\": \"binary:logistic\", \"max_depth\": null, \"learning_rate\": null, \"verbosity\": null, \"booster\": null, \"tree_method\": null, \"gamma\": null, \"min_child_weight\": null, \"max_delta_step\": null, \"subsample\": null, \"colsample_bytree\": null, \"colsample_bylevel\": null, \"colsample_bynode\": null, \"reg_alpha\": null, \"reg_lambda\": null, \"scale_pos_weight\": null, \"base_score\": null, \"missing\": NaN, \"num_parallel_tree\": null, \"kwargs\": {}, \"random_state\": null, \"n_jobs\": null, \"monotone_constraints\": null, \"interaction_constraints\": null, \"importance_type\": \"gain\", \"gpu_id\": null, \"validate_parameters\": null, \"classes_\": [0, 1], \"n_classes_\": 2, \"_le\": {\"classes_\": [0, 1]}, \"_features_count\": 2, \"n_features_in_\": 2, \"evals_result_\": {\"validation_0\": {\"auc\": [0.787838, 0.783108, 0.768243, 0.766892, 0.773649, 0.783108, 0.784459, 0.779054, 0.779054, 0.788514, 0.787838, 0.787838, 0.786487, 0.787162, 0.785811, 0.787162, 0.787162, 0.789865, 0.789865, 0.785811, 0.787162, 0.782432, 0.77973, 0.782432, 0.785135, 0.783784, 0.785135, 0.785135, 0.783784, 0.781081, 0.787838, 0.787838, 0.789189, 0.783784, 0.785135, 0.786487, 0.783784, 0.782432, 0.777027, 0.776351, 0.779054, 0.784459, 0.781757, 0.773649, 0.784459, 0.786487, 0.783784, 0.787838, 0.782432, 0.785135, 0.781081, 0.77973, 0.781081, 0.783784, 0.785135, 0.782432, 0.782432, 0.786487, 0.786487, 0.786487, 0.786487, 0.787838, 0.783784, 0.783784, 0.783784, 0.782432, 0.783784, 0.785135, 0.783784, 0.783784, 0.781081, 0.781081, 0.782432, 0.778378, 0.778378, 0.781081, 0.77973, 0.77973, 0.781081, 0.781081, 0.77973, 0.77973, 0.77973, 0.781081, 0.778378, 0.781081, 0.77973, 0.783784, 0.783784, 0.781081, 0.782432, 0.785135, 0.77973, 0.778378, 0.781081, 0.782432, 0.782432, 0.781081, 0.77973, 0.77973]}}, \"best_score\": 0.789865, \"best_iteration\": 17, \"best_ntree_limit\": 18, \"type\": \"XGBClassifier\"}"},"gradient_booster":{"model":{"gbtree_model_param":{"num_trees":"100","size_leaf_vector":"0"},"tree_info":[0,0,0,0,0,0,0,0,0,0,0,0,0,0,0,0,0,0,0,0,0,0,0,0,0,0,0,0,0,0,0,0,0,0,0,0,0,0,0,0,0,0,0,0,0,0,0,0,0,0,0,0,0,0,0,0,0,0,0,0,0,0,0,0,0,0,0,0,0,0,0,0,0,0,0,0,0,0,0,0,0,0,0,0,0,0,0,0,0,0,0,0,0,0,0,0,0,0,0,0],"trees":[{"base_weights":[-5.808967E-1,-1.5934427E0,8.867925E-1,-1.9578947E0,-9.579832E-1,9.8507464E-1,-6.666667E-1,8E-1,-1.079646E0,3.125E-1,1.2624114E0,-1.2E0,2.2222222E-1,-7.906977E-1,-1.7419355E0,7.4509805E-1,-1.0588236E0,1.3719008E0,5E-1,-1.2463768E0,8.5714287E-1,1.8181819E-1,1.4545455E0,1.0344827E0,1.5820895E0,-5E-1,8E-1,-6.25E-1,-1.6097561E0,1.4285715E0,-1.8181819E-1,1.2941177E0,-8E-1,1.6666666E0,5.263158E-1,1.1111112E0,4E-1],"categories":[],"categories_nodes":[],"categories_segments":[],"categories_sizes":[],"default_left":[true,true,true,false,true,true,true,false,true,true,true,false,false,true,false,true,false,true,true,true,true,true,false,true,false,false,true,false,false,false,false,false,false,false,false,false,false],"id":0,"left_children":[1,3,5,-1,7,9,11,-1,13,15,17,-1,-1,19,-1,21,-1,23,25,27,29,31,-1,33,-1,-1,35,-1,-1,-1,-1,-1,-1,-1,-1,-1,-1],"loss_changes":[1.920057E2,1.5783463E1,8.748615E0,0E0,7.2266808E0,8.978611E0,2.0444446E0,0E0,4.0287857E0,1.0280638E1,2.2565804E0,0E0,0E0,1.7212385E1,0E0,4.8306594E0,0E0,5.0873184E-1,2.2E0,2.888874E0,3.3766232E0,1.004492E1,0E0,3.781003E0,0E0,0E0,1.7777753E-1,0E0,0E0,0E0,0E0,0E0,0E0,0E0,0E0,0E0,0E0],"parents":[2147483647,0,0,1,1,2,2,4,4,5,5,6,6,8,8,9,9,10,10,13,13,15,15,17,17,18,18,19,19,20,20,21,21,23,23,26,26],"right_children":[2,4,6,-1,8,10,12,-1,14,16,18,-1,-1,20,-1,22,-1,24,26,28,30,32,-1,34,-1,-1,36,-1,-1,-1,-1,-1,-1,-1,-1,-1,-1],"split_conditions":[2.047E3,1.11E3,1.8004E4,-5.873684E-1,1.314E3,3.0395E3,1.81745E4,2.4000001E-1,1.8995E3,2.844E3,6.89E3,-3.6E-1,6.666667E-2,1.694E3,-5.225807E-1,2.531E3,-3.176471E-1,4.6065E3,8.4065E3,1.5285E3,1.791E3,2.2665E3,4.3636367E-1,3.3245E3,4.7462687E-1,-1.5E-1,1.02035E4,-1.875E-1,-4.8292685E-1,4.2857146E-1,-5.454546E-2,3.8823533E-1,-2.4000001E-1,5E-1,1.5789475E-1,3.3333337E-1,1.20000005E-1],"split_indices":[0,0,0,0,1,0,1,0,1,1,1,0,0,0,0,0,0,0,1,1,1,1,0,1,0,0,0,0,0,0,0,0,0,0,0,0,0],"split_type":[0,0,0,0,0,0,0,0,0,0,0,0,0,0,0,0,0,0,0,0,0,0,0,0,0,0,0,0,0,0,0,0,0,0,0,0,0],"sum_hessian":[1.2725E2,7.525E1,5.2E1,4.65E1,2.875E1,4.925E1,2.75E0,1.5E0,2.725E1,1.5E1,3.425E1,1.5E0,1.25E0,2.05E1,6.75E0,1.175E1,3.25E0,2.925E1,5E0,1.625E1,4.25E0,7.25E0,4.5E0,1.35E1,1.575E1,1E0,4E0,7E0,9.25E0,2.5E0,1.75E0,3.25E0,4E0,5E0,8.5E0,1.25E0,2.75E0],"tree_param":{"num_deleted":"0","num_feature":"2","num_nodes":"37","size_leaf_vector":"0"}},{"base_weights":[-4.3274364E-1,-1.2218682E0,6.740577E-1,-1.5201939E0,-7.231309E-1,7.4771327E-1,-6.610393E-1,-2.1465318E-1,-1.0523251E0,2.4460244E-1,9.5268047E-1,-8.473786E-1,5.9157926E-1,-1.3690212E0,-5.805922E-1,6.164369E-1,-7.571353E-1,1.0458215E0,3.8490492E-1,6.623555E-1,-1.3353004E0,1.0389642E0,-7.831065E-2,6.2272733E-1,-1.3122158E0,8.298825E-2,1.3206202E0,8.556122E-1,1.3464409E0,-1.9344614E-1,5.595951E-1,3.2767543E-1,1.2624024E0,-8.751961E-1,7.522965E-1,9.727219E-1,3.273369E-2,1.0298512E0,-7.674403E-1,9.638288E-1,-4.9601737E-1,2.5830364E-1,7.847125E-1],"categories":[],"categories_nodes":[],"categories_segments":[],"categories_sizes":[],"default_left":[true,true,true,false,true,true,false,true,true,true,true,true,true,false,true,true,false,true,true,false,false,true,true,true,false,true,false,true,false,false,true,false,false,false,false,false,false,false,false,false,false,false,false],"id":1,"left_children":[1,3,5,-1,7,9,-1,11,13,15,17,19,21,-1,23,25,-1,27,29,-1,-1,31,33,35,-1,37,-1,39,-1,-1,41,-1,-1,-1,-1,-1,-1,-1,-1,-1,-1,-1,-1],"loss_changes":[1.0697156E2,9.5097885E0,5.5320225E0,0E0,4.56059E0,4.8219814E0,0E0,6.8746514E0,1.7600288E0,6.2533154E0,1.4211273E0,6.3437943E0,1.9042857E0,0E0,8.3933735E0,4.35345E0,0E0,5.086422E-1,7.591241E-1,0E0,0E0,1.7708397E-1,2.88603E0,7.8010845E-1,0E0,7.093007E0,0E0,3.48112E0,0E0,0E0,1.50316E-1,0E0,0E0,0E0,0E0,0E0,0E0,0E0,0E0,0E0,0E0,0E0,0E0],"parents":[2147483647,0,0,1,1,2,2,4,4,5,5,7,7,8,8,9,9,10,10,11,11,12,12,14,14,15,15,17,17,18,18,21,21,22,22,23,23,25,25,27,27,30,30],"right_children":[2,4,6,-1,8,10,-1,12,14,16,18,20,22,-1,24,26,-1,28,30,-1,-1,32,34,36,-1,38,-1,40,-1,-1,42,-1,-1,-1,-1,-1,-1,-1,-1,-1,-1,-1,-1],"split_conditions":[2.047E3,1.11E3,1.8601E4,-4.560582E-1,1.6245E3,3.0395E3,-1.9831179E-1,1.396E3,1.7595E3,2.802E3,6.89E3,1.314E3,1.5405E3,-4.1070637E-1,1.909E3,2.531E3,-2.2714059E-1,5.49E3,8.3135E3,1.9870666E-1,-4.0059015E-1,1.4875E3,1.6E3,1.791E3,-3.9366475E-1,2.2665E3,3.9618608E-1,5.383E3,4.039323E-1,-5.8033846E-2,1.57995E4,9.830263E-2,3.7872073E-1,-2.6255885E-1,2.2568896E-1,2.9181656E-1,9.820107E-3,3.0895537E-1,-2.302321E-1,2.8914866E-1,-1.4880522E-1,7.74911E-2,2.3541376E-1],"split_indices":[0,0,0,0,1,0,0,0,0,1,1,1,1,0,1,0,0,0,0,0,0,0,1,1,0,1,0,0,0,0,0,0,0,0,0,0,0,0,0,0,0,0,0],"split_type":[0,0,0,0,0,0,0,0,0,0,0,0,0,0,0,0,0,0,0,0,0,0,0,0,0,0,0,0,0,0,0,0,0,0,0,0,0,0,0,0,0,0,0],"sum_hessian":[1.2053361E2,7.0304276E1,5.0229336E1,4.2709183E1,2.7595093E1,4.8020084E1,2.2092488E0,1.14937525E1,1.6101341E1,1.4535277E1,3.348481E1,6.41123E0,5.0825224E0,8.495686E0,7.6056557E0,1.0880999E1,3.6542792E0,2.8042583E1,5.442225E0,1.4786056E0,4.9326243E0,2.7170184E0,2.3655038E0,2.9320621E0,4.6735935E0,6.827061E0,4.0539374E0,1.9531002E1,8.511581E0,1.2375782E0,4.2046466E0,1.2390778E0,1.4779407E0,1.1798613E0,1.1856425E0,1.4331774E0,1.4988848E0,3.1305468E0,3.6965144E0,1.8348839E1,1.1821641E0,2.7164438E0,1.4882028E0],"tree_param":{"num_deleted":"0","num_feature":"2","num_nodes":"43","size_leaf_vector":"0"}},{"base_weights":[-3.492131E-1,-1.0010687E0,5.63173E-1,-1.3155297E0,-5.5399984E-1,6.3735116E-1,-4.74994E-1,-3.488057E-1,-1.252043E0,3.161146E-1,7.893039E-1,-9.5101374E-1,2.4843252E-1,-5.2918863E-1,1.1165696E0,7.4087334E-1,-5.6689006E-1,8.7463856E-1,3.536282E-1,-2.1893957E-1,-1.0393703E0,1.582753E-1,1.0706758E0,-6.89493E-1,-1.6225797E-1,6.77137E-1,1.1732517E0,-1.3207087E-1,4.7668183E-1,-5.005861E-1,1.1094322E0,9.582421E-1,-5.481901E-1,7.904759E-1,-4.075541E-1,6.614455E-1,2.1711622E-1],"categories":[],"categories_nodes":[],"categories_segments":[],"categories_sizes":[],"default_left":[true,true,true,false,true,true,true,true,false,true,true,false,false,true,false,true,true,true,true,true,false,true,false,false,false,true,false,false,true,false,false,false,false,false,false,false,false],"id":2,"left_children":[1,3,5,-1,7,9,11,13,-1,15,17,-1,-1,19,-1,21,23,25,27,29,-1,31,-1,-1,-1,33,-1,-1,35,-1,-1,-1,-1,-1,-1,-1,-1],"loss_changes":[6.542929E1,8.26516E0,3.8520746E0,0E0,3.5945873E0,1.8710709E0,1.4920013E0,6.706694E0,0E0,6.278013E0,7.6234627E-1,0E0,0E0,3.1406603E0,0E0,1.9401226E0,1.6789198E-1,5.870533E-1,4.45453E-1,5.9800997E0,0E0,3.43136E0,0E0,0E0,0E0,2.3462386E0,0E0,0E0,1.116761E-1,0E0,0E0,0E0,0E0,0E0,0E0,0E0,0E0],"parents":[2147483647,0,0,1,1,2,2,4,4,5,5,6,6,7,7,9,9,10,10,13,13,15,15,16,16,17,17,18,18,19,19,21,21,25,25,28,28],"right_children":[2,4,6,-1,8,10,12,14,-1,16,18,-1,-1,20,-1,22,24,26,28,30,-1,32,-1,-1,-1,34,-1,-1,36,-1,-1,-1,-1,-1,-1,-1,-1],"split_conditions":[2.2305E3,1.11E3,1.8004E4,-3.9465892E-1,1.991E3,3.3305E3,1.81745E4,1.8805E3,-3.756129E-1,2.868E3,7.136E3,-2.8530413E-1,7.452976E-2,1.6825E3,3.349709E-1,2.442E3,3.073E3,5.49E3,7.8355E3,1.5975E3,-3.118111E-1,2.2975E3,3.2120275E-1,-2.068479E-1,-4.8677392E-2,5.383E3,3.5197553E-1,-3.9621264E-2,1.02035E4,-1.5017584E-1,3.3282968E-1,2.8747264E-1,-1.6445704E-1,2.3714279E-1,-1.2226623E-1,1.9843365E-1,6.513487E-2],"split_indices":[0,0,0,0,1,0,1,0,0,1,0,0,0,1,0,0,0,0,0,0,0,1,0,0,0,0,0,0,0,0,0,0,0,0,0,0,0],"split_type":[0,0,0,0,0,0,0,0,0,0,0,0,0,0,0,0,0,0,0,0,0,0,0,0,0,0,0,0,0,0,0,0,0,0,0,0,0],"sum_hessian":[1.0806459E2,6.2974888E1,4.5089703E1,3.5830048E1,2.7144838E1,4.2443172E1,2.6465306E0,2.213717E1,5.0076675E0,1.4618724E1,2.782445E1,1.4064683E0,1.2400622E0,2.0279678E1,1.8574908E0,9.979277E0,4.639447E0,2.2424646E1,5.399802E0,1.3499545E1,6.7801337E0,4.142116E0,5.837161E0,3.0203009E0,1.6191465E0,1.5464254E1,6.9603925E0,1.0767066E0,4.323096E0,1.1652166E1,1.8473792E0,1.7753768E0,2.366739E0,1.4246851E1,1.2174033E0,1.6209756E0,2.70212E0],"tree_param":{"num_deleted":"0","num_feature":"2","num_nodes":"37","size_leaf_vector":"0"}},{"base_weights":[-2.876618E-1,-9.100768E-1,3.9339212E-1,-1.1959107E0,-4.7883943E-1,4.4377396E-1,-4.7423708E-1,2.1277711E-1,-7.1455854E-1,7.703115E-2,5.9575444E-1,-3.5851058E-1,1.2425531E0,-9.867709E-1,-2.8110322E-1,1.070957E0,-2.4687326E-1,6.6322815E-1,2.2025873E-1,5.1332855E-1,-7.944998E-1,8.7850136E-1,-1.0940773E0,-9.4929236E-1,1.1587652E-1,4.03389E-1,8.9450526E-1,-5.077678E-2,6.6752946E-1,4.8797265E-1,-5.7451195E-1,9.2124814E-1,-3.0809527E-2,2.3911431E-1,-3.667713E-1],"categories":[],"categories_nodes":[],"categories_segments":[],"categories_sizes":[],"default_left":[true,true,true,false,true,true,false,true,true,true,true,true,false,false,true,false,true,true,true,false,false,false,false,false,true,true,false,true,false,false,false,false,false,false,false],"id":3,"left_children":[1,3,5,-1,7,9,-1,11,13,15,17,19,-1,-1,21,-1,23,25,27,-1,-1,-1,-1,-1,29,31,-1,33,-1,-1,-1,-1,-1,-1,-1],"loss_changes":[4.1265743E1,5.6797447E0,2.2553082E0,0E0,3.720243E0,2.4471807E0,0E0,4.171771E0,1.6757479E0,4.853124E0,6.5137386E-1,2.2513928E0,0E0,0E0,8.299099E0,0E0,3.0562463E0,1.2126617E0,7.9659724E-1,0E0,0E0,0E0,0E0,0E0,2.4680994E0,3.2104573E0,0E0,5.316959E-1,0E0,0E0,0E0,0E0,0E0,0E0,0E0],"parents":[2147483647,0,0,1,1,2,2,4,4,5,5,7,7,8,8,9,9,10,10,11,11,14,14,16,16,17,17,18,18,24,24,25,25,27,27],"right_children":[2,4,6,-1,8,10,-1,12,14,16,18,20,-1,-1,22,-1,24,26,28,-1,-1,-1,-1,-1,30,32,-1,34,-1,-1,-1,-1,-1,-1,-1],"split_conditions":[1.903E3,1.11E3,1.8601E4,-3.5877323E-1,1.4305E3,2.8835E3,-1.4227113E-1,1.3105E3,1.608E3,2.04E3,6.89E3,1.2945E3,3.7276596E-1,-2.960313E-1,1.791E3,3.212871E-1,2.277E3,4.6065E3,1.46435E4,1.5399857E-1,-2.3834996E-1,2.6355043E-1,-3.2822323E-1,-2.847877E-1,2.7795E3,3.3245E3,2.6835158E-1,1.02035E4,2.0025885E-1,1.463918E-1,-1.723536E-1,2.7637446E-1,-9.242859E-3,7.1734294E-2,-1.10031396E-1],"split_indices":[0,0,0,0,1,0,0,0,0,1,1,1,0,0,1,0,0,0,1,0,0,0,0,0,1,1,0,0,0,0,0,0,0,0,0],"split_type":[0,0,0,0,0,0,0,0,0,0,0,0,0,0,0,0,0,0,0,0,0,0,0,0,0,0,0,0,0,0,0,0,0,0,0],"sum_hessian":[9.550367E1,4.972433E1,4.5779335E1,2.8837187E1,2.0887144E1,4.3728603E1,2.0507295E0,5.334036E0,1.5553108E1,1.3253516E1,3.047509E1,3.8500202E0,1.4840158E0,8.769372E0,6.7837367E0,2.69065E0,1.0562866E1,2.5183529E1,5.2915597E0,1.2243412E0,2.625679E0,2.7626147E0,4.021122E0,3.0465918E0,7.5162745E0,1.3151754E1,1.2031775E1,3.846902E0,1.4446577E0,5.0744877E0,2.4417868E0,5.4864564E0,7.665298E0,2.1332083E0,1.7136939E0],"tree_param":{"num_deleted":"0","num_feature":"2","num_nodes":"35","size_leaf_vector":"0"}},{"base_weights":[-2.4005373E-1,-1.0206599E0,1.745742E-1,-1.1166129E0,-5.4561335E-1,-2.5585178E-1,3.6832866E-1,5.3663987E-1,-9.203907E-1,8.699503E-1,-4.972694E-1,4.2681172E-1,-3.609983E-1,-2.580321E-1,-1.0354252E0,2.9902518E-1,1.0376751E0,-8.897037E-1,-2.3305482E-1,2.716577E-1,6.0617083E-1,-8.0761296E-1,2.5147468E-1,-1.6944957E-1,-1.0069178E0,8.291142E-1,-6.339851E-1,6.1907846E-1,1.2562791E-2,7.5041366E-1,2.1294282E-1,-1.3987161E-1,-9.176924E-1,7.5980514E-2,8.6069185E-1,-4.7295165E-1,3.0101323E-1,7.887366E-1,1.9607086E-1,-3.374442E-1,4.3408233E-1],"categories":[],"categories_nodes":[],"categories_segments":[],"categories_sizes":[],"default_left":[true,true,true,false,true,true,true,false,true,true,true,true,true,false,false,false,false,true,true,true,true,false,false,false,false,false,true,true,true,true,true,false,false,false,false,false,false,false,false,false,false],"id":4,"left_children":[1,3,5,-1,7,9,11,-1,13,15,17,19,21,-1,-1,-1,-1,23,25,27,29,-1,-1,-1,-1,-1,31,33,35,37,39,-1,-1,-1,-1,-1,-1,-1,-1,-1,-1],"loss_changes":[2.7683899E1,7.4121475E-1,4.7941813E0,0E0,3.3064346E0,5.3475943E0,1.829175E0,0E0,1.533308E-1,3.0310392E-2,1.4025974E0,8.598347E-1,1.1487627E0,0E0,0E0,0E0,0E0,3.2685995E-1,5.0543466E0,1.9321969E0,7.626796E-1,0E0,0E0,0E0,0E0,0E0,1.0333323E0,1.139971E0,2.0142064E0,8.971453E-2,8.476511E-1,0E0,0E0,0E0,0E0,0E0,0E0,0E0,0E0,0E0,0E0],"parents":[2147483647,0,0,1,1,2,2,4,4,5,5,6,6,8,8,9,9,10,10,11,11,12,12,17,17,18,18,19,19,20,20,26,26,27,27,28,28,29,29,30,30],"right_children":[2,4,6,-1,8,10,12,-1,14,16,18,20,22,-1,-1,-1,-1,24,26,28,30,-1,-1,-1,-1,-1,32,34,36,38,40,-1,-1,-1,-1,-1,-1,-1,-1,-1,-1],"split_conditions":[1.396E3,1.11E3,2.277E3,-3.349839E-1,1.314E3,1.5405E3,1.8004E4,1.6099197E-1,1.2085E3,1.4875E3,1.652E3,4.6065E3,1.81745E4,-7.740964E-2,-3.1062758E-1,8.970755E-2,3.1130254E-1,1.4565E3,1.791E3,2.868E3,6.89E3,-2.422839E-1,7.54424E-2,-5.083487E-2,-3.0207536E-1,2.4873427E-1,1.991E3,2.442E3,3.3305E3,7.136E3,8.3135E3,-4.1961484E-2,-2.7530774E-1,2.2794155E-2,2.5820756E-1,-1.418855E-1,9.030397E-2,2.3662098E-1,5.882126E-2,-1.0123326E-1,1.302247E-1],"split_indices":[0,0,0,0,1,1,0,0,0,0,0,0,1,0,0,0,0,0,1,1,1,0,0,0,0,0,1,0,0,0,0,0,0,0,0,0,0,0,0,0,0],"split_type":[0,0,0,0,0,0,0,0,0,0,0,0,0,0,0,0,0,0,0,0,0,0,0,0,0,0,0,0,0,0,0,0,0,0,0,0,0,0,0,0,0],"sum_hessian":[8.398308E1,2.8626776E1,5.5356304E1,2.2692633E1,5.934142E0,1.7083897E1,3.8272408E1,1.415289E0,4.5188527E0,2.5568833E0,1.4527013E1,3.5815254E1,2.4571562E0,1.1485698E0,3.370283E0,1.2124863E0,1.344397E0,4.8926597E0,9.634354E0,2.0551687E1,1.5263566E1,1.2367266E0,1.2204297E0,1.0270866E0,3.8655732E0,2.347428E0,7.2869253E0,8.185863E0,1.2365825E1,1.0502665E1,4.760901E0,3.2024505E0,4.0844746E0,2.925162E0,5.2607E0,4.3702583E0,7.9955664E0,9.428051E0,1.0746136E0,1.2138516E0,3.5470495E0],"tree_param":{"num_deleted":"0","num_feature":"2","num_nodes":"41","size_leaf_vector":"0"}},{"base_weights":[-2.0401712E-1,-9.4741267E-1,1.4044234E-1,-1.058581E0,-4.6855897E-1,-2.2607799E-1,2.9027233E-1,4.556469E-1,-8.1362337E-1,5.314002E-1,-5.470657E-1,3.39516E-1,-3.1638923E-1,-2.0365208E-1,-9.31916E-1,9.1080564E-1,1.923097E-1,-9.420054E-1,-2.567879E-1,8.7256914E-1,2.8089064E-1,-7.1980363E-1,2.0989655E-1,-3.190696E-1,5.1477E-1,4.6678647E-1,-8.0303955E-1,-3.449694E-1,3.963456E-1,7.6759875E-1,2.8691094E-2,-2.0383878E-1,-9.0919703E-1,-5.481986E-1,-1.3791859E-1,7.193662E-1,2.968663E-1],"categories":[],"categories_nodes":[],"categories_segments":[],"categories_sizes":[],"default_left":[true,true,true,false,true,true,true,false,true,true,true,true,true,false,false,false,true,false,true,false,true,false,false,false,false,true,true,true,true,false,false,false,false,false,false,false,false],"id":5,"left_children":[1,3,5,-1,7,9,11,-1,13,15,17,19,21,-1,-1,-1,23,-1,25,-1,27,-1,-1,-1,-1,29,31,33,35,-1,-1,-1,-1,-1,-1,-1,-1],"loss_changes":[1.9385862E1,7.781849E-1,2.9349604E0,0E0,2.3811412E0,4.113753E0,1.2284882E0,0E0,1.673224E-1,4.921806E-1,1.0806668E0,8.546457E-1,8.591434E-1,0E0,0E0,0E0,8.2495695E-1,0E0,3.5463724E0,0E0,2.534206E0,0E0,0E0,0E0,0E0,5.162058E-1,1.2889314E-1,1.6432983E-1,7.015219E-1,0E0,0E0,0E0,0E0,0E0,0E0,0E0,0E0],"parents":[2147483647,0,0,1,1,2,2,4,4,5,5,6,6,8,8,9,9,10,10,11,11,12,12,16,16,18,18,20,20,25,25,26,26,27,27,28,28],"right_children":[2,4,6,-1,8,10,12,-1,14,16,18,20,22,-1,-1,-1,24,-1,26,-1,28,-1,-1,-1,-1,30,32,34,36,-1,-1,-1,-1,-1,-1,-1,-1],"split_conditions":[1.396E3,1.11E3,2.2305E3,-3.1757432E-1,1.314E3,1.6245E3,1.8004E4,1.3669407E-1,1.3405E3,1.449E3,1.6975E3,2.3135E3,1.81745E4,-6.109563E-2,-2.795748E-1,2.732417E-1,1.5115E3,-2.8260162E-1,1.8995E3,2.6177076E-1,2.7545E3,-2.159411E-1,6.296897E-2,-9.572088E-2,1.54431E-1,1.791E3,1.991E3,2.369E3,3.19E3,2.3027964E-1,8.607329E-3,-6.1151635E-2,-2.727591E-1,-1.6445959E-1,-4.1375577E-2,2.1580987E-1,8.905989E-2],"split_indices":[0,0,0,0,1,1,0,0,1,1,0,1,1,0,0,0,0,0,1,0,0,0,0,0,0,1,1,0,1,0,0,0,0,0,0,0,0],"split_type":[0,0,0,0,0,0,0,0,0,0,0,0,0,0,0,0,0,0,0,0,0,0,0,0,0,0,0,0,0,0,0,0,0,0,0,0,0],"sum_hessian":[7.4185814E1,2.2936008E1,5.12498E1,1.7631996E1,5.3040123E0,1.4723549E1,3.6526253E1,1.3548285E0,3.949184E0,4.187119E0,1.053643E1,3.419125E1,2.3350046E0,1.0835414E0,2.8656425E0,1.1803787E0,3.0067403E0,3.5124085E0,7.0240216E0,2.0121248E0,3.2179127E1,1.1136514E0,1.2213532E0,1.1668252E0,1.8399153E0,3.0841618E0,3.9398599E0,4.702084E0,2.7477041E1,1.3826541E0,1.7015076E0,1.0324425E0,2.9074173E0,1.5414411E0,3.1606429E0,5.002392E0,2.247465E1],"tree_param":{"num_deleted":"0","num_feature":"2","num_nodes":"37","size_leaf_vector":"0"}},{"base_weights":[-1.7576037E-1,-8.846307E-1,1.0718E-1,-1.0061003E0,-3.733146E-1,-2.5285515E-1,2.096039E-1,3.0525133E-1,-8.433921E-1,4.5166808E-1,-7.037859E-1,9.094296E-1,1.437227E-1,6.53895E-1,3.09784E-2,-3.1038E-1,-9.288417E-1,-5.5980825E-1,2.3087215E-1,1.8403423E-1,8.220691E-1,-7.63119E-1,4.511279E-1,-7.2579134E-1,-2.1703234E-1,6.512993E-1,1.450572E-1,-1.6608026E-2,8.816289E-1,-5.104528E-1,2.4692604E-1],"categories":[],"categories_nodes":[],"categories_segments":[],"categories_sizes":[],"default_left":[true,true,true,false,true,true,true,false,false,true,true,false,true,true,false,true,false,true,true,false,false,false,false,false,false,true,true,false,false,false,false],"id":6,"left_children":[1,3,5,-1,7,9,11,-1,-1,13,15,-1,17,19,-1,21,-1,23,25,-1,-1,-1,-1,-1,-1,27,29,-1,-1,-1,-1],"loss_changes":[1.3623312E1,8.2623863E-1,1.8636463E0,0E0,1.9494449E0,3.9166496E0,1.6569277E0,0E0,0E0,4.0766573E-1,3.5785317E-1,0E0,2.3747773E0,1.1320722E-1,0E0,1.7776392E0,0E0,8.876538E-2,1.1067984E0,0E0,0E0,0E0,0E0,0E0,0E0,8.3884E-1,2.0584207E0,0E0,0E0,0E0,0E0],"parents":[2147483647,0,0,1,1,2,2,4,4,5,5,6,6,9,9,10,10,12,12,13,13,15,15,17,17,18,18,25,25,26,26],"right_children":[2,4,6,-1,8,10,12,-1,-1,14,16,-1,18,20,-1,22,-1,24,26,-1,-1,-1,-1,-1,-1,28,30,-1,-1,-1,-1],"split_conditions":[1.396E3,1.135E3,1.903E3,-3.018301E-1,1.3405E3,1.6245E3,2.04E3,9.15754E-2,-2.5301763E-1,1.5405E3,1.791E3,2.728289E-1,2.369E3,1.4875E3,9.293521E-3,1.6545E3,-2.7865252E-1,2.2305E3,2.802E3,5.521027E-2,2.4662074E-1,-2.289357E-1,1.3533837E-1,-2.177374E-1,-6.510971E-2,2.531E3,3.0395E3,-4.982408E-3,2.6448867E-1,-1.5313585E-1,7.4077815E-2],"split_indices":[0,0,0,0,1,1,1,0,0,1,1,0,0,0,0,0,0,0,1,0,0,0,0,0,0,0,0,0,0,0,0],"split_type":[0,0,0,0,0,0,0,0,0,0,0,0,0,0,0,0,0,0,0,0,0,0,0,0,0,0,0,0,0,0,0],"sum_hessian":[6.645091E1,1.8350231E1,4.810068E1,1.4045805E1,4.3044267E0,1.0327894E1,3.777279E1,1.905065E0,2.399362E0,4.029955E0,6.2979393E0,2.1483004E0,3.562449E1,2.3472729E0,1.6826823E0,3.15755E0,3.140389E0,3.3287737E0,3.2295715E1,1.1707177E0,1.176555E0,1.9789126E0,1.1786376E0,1.4899155E0,1.8388581E0,4.3575416E0,2.7938171E1,1.3553131E0,3.0022285E0,3.2182643E0,2.4719908E1],"tree_param":{"num_deleted":"0","num_feature":"2","num_nodes":"31","size_leaf_vector":"0"}},{"base_weights":[-1.5046935E-1,-9.7128385E-1,3.9343555E-2,-2.705989E-1,1.6211383E-1,5.4719515E-2,-6.647326E-1,8.158689E-1,1.0431086E-1,-2.815101E-1,3.8912693E-1,-8.3710366E-1,-3.294364E-1,-4.8932853E-1,1.7732215E-1,4.1395518E-1,-6.3309115E-1,7.5561696E-1,9.569583E-2,4.088639E-1,-7.6146775E-1,-6.6056734E-1,-1.766945E-1,2.5242183E-1,-2.0848389E-1,-2.387971E-1,4.6616182E-1,1.19443834E-1,5.9395534E-1,-5.738723E-1,1.3661107E-1],"categories":[],"categories_nodes":[],"categories_segments":[],"categories_sizes":[],"default_left":[true,false,true,true,true,true,true,false,true,true,true,false,true,true,true,false,false,false,true,false,false,false,false,true,true,false,false,false,false,false,false],"id":7,"left_children":[1,-1,3,5,7,9,11,-1,13,15,17,-1,19,21,23,-1,-1,-1,25,-1,-1,-1,-1,27,29,-1,-1,-1,-1,-1,-1],"loss_changes":[9.539847E0,0E0,1.965197E0,1.9212588E0,1.3052306E0,1.1189245E0,1.1280131E-1,0E0,1.6015792E0,1.4984884E0,4.568485E-1,0E0,1.5654298E0,1.0243708E-1,9.756241E-1,0E0,0E0,0E0,5.918335E-1,0E0,0E0,0E0,0E0,1.160654E0,8.0195975E-1,0E0,0E0,0E0,0E0,0E0,0E0],"parents":[2147483647,0,0,2,2,3,3,4,4,5,5,6,6,8,8,9,9,10,10,12,12,13,13,14,14,18,18,23,23,24,24],"right_children":[2,-1,4,6,8,10,12,-1,14,16,18,-1,20,22,24,-1,-1,-1,26,-1,-1,-1,-1,28,30,-1,-1,-1,-1,-1,-1],"split_conditions":[1.11E3,-2.9138517E-1,1.903E3,1.6245E3,2.04E3,1.396E3,1.6975E3,2.4476068E-1,2.369E3,1.314E3,1.449E3,-2.5113112E-1,1.8305E3,2.2305E3,1.02035E4,1.2418656E-1,-1.8992735E-1,2.2668509E-1,1.562E3,1.2265918E-1,-2.2844033E-1,-1.9817021E-1,-5.300835E-2,5.49E3,1.46435E4,-7.1639135E-2,1.3984855E-1,3.583315E-2,1.7818661E-1,-1.721617E-1,4.0983323E-2],"split_indices":[0,0,0,1,1,0,0,0,0,1,1,0,1,0,0,0,0,0,0,0,0,0,0,0,1,0,0,0,0,0,0],"split_type":[0,0,0,0,0,0,0,0,0,0,0,0,0,0,0,0,0,0,0,0,0,0,0,0,0,0,0,0,0,0,0],"sum_hessian":[5.9985634E1,1.0493062E1,4.9492573E1,1.3700518E1,3.5792053E1,7.977251E0,5.7232666E0,1.8421844E0,3.3949867E1,4.056664E0,3.920587E0,2.791557E0,2.9317098E0,3.0936837E0,3.0856184E1,1.3025899E0,2.7540743E0,1.0429068E0,2.87768E0,1.1020449E0,1.829665E0,1.279794E0,1.8138897E0,2.6117893E1,4.7382913E0,1.6990373E0,1.1786427E0,1.9770044E1,6.34785E0,1.9794735E0,2.7588177E0],"tree_param":{"num_deleted":"0","num_feature":"2","num_nodes":"31","size_leaf_vector":"0"}},{"base_weights":[-1.2828973E-1,-9.1592216E-1,3.347019E-2,-2.1433166E-1,1.22106165E-1,3.2609168E-1,-4.400199E-1,7.378328E-1,7.1686506E-2,-4.1880004E-2,7.290011E-1,-2.2151765E-1,-7.962255E-1,-4.288517E-1,1.3233696E-1,1.0683669E-1,-1.677556E-1,-5.6685174E-1,5.2940553E-1,-6.031508E-1,-1.4383481E-1,5.539078E-1,5.3740643E-2,-6.5557873E-1,-2.0012681E-1,-3.4356415E-2,7.982009E-1,-3.624158E-1,1.6039327E-1],"categories":[],"categories_nodes":[],"categories_segments":[],"categories_sizes":[],"default_left":[true,false,true,true,true,true,true,false,true,true,false,true,false,true,true,false,false,true,false,false,false,true,true,false,false,false,false,false,false],"id":8,"left_children":[1,-1,3,5,7,9,11,-1,13,15,-1,17,-1,19,21,-1,-1,23,-1,-1,-1,25,27,-1,-1,-1,-1,-1,-1],"loss_changes":[7.1429486E0,0E0,1.0645638E0,1.7068844E0,1.0479069E0,6.755256E-1,5.605117E-1,0E0,1.0853475E0,7.8190565E-2,0E0,2.181085E0,0E0,1.0687381E-1,9.9687594E-1,0E0,0E0,4.6185136E-2,0E0,0E0,0E0,7.1169126E-1,1.2664073E0,0E0,0E0,0E0,0E0,0E0,0E0],"parents":[2147483647,0,0,2,2,3,3,4,4,5,5,6,6,8,8,9,9,11,11,13,13,14,14,17,17,21,21,22,22],"right_children":[2,-1,4,6,8,10,12,-1,14,16,-1,18,-1,20,22,-1,-1,24,-1,-1,-1,26,28,-1,-1,-1,-1,-1,-1],"split_conditions":[1.135E3,-2.7477667E-1,1.903E3,1.4305E3,2.04E3,1.3105E3,1.791E3,2.2134985E-1,2.369E3,1.3225E3,2.1870033E-1,1.5995E3,-2.3886766E-1,2.2305E3,2.802E3,3.205101E-2,-5.0326683E-2,1.5275E3,1.5882167E-1,-1.8094525E-1,-4.3150447E-2,2.531E3,3.3305E3,-1.9667363E-1,-6.0038045E-2,-1.0306925E-2,2.3946027E-1,-1.0872474E-1,4.8117984E-2],"split_indices":[0,0,0,1,1,0,1,0,0,1,0,0,0,0,1,0,0,0,0,0,0,0,0,0,0,0,0,0,0],"split_type":[0,0,0,0,0,0,0,0,0,0,0,0,0,0,0,0,0,0,0,0,0,0,0,0,0,0,0,0,0],"sum_hessian":[5.4823242E1,8.546563E0,4.627668E1,1.181818E1,3.44585E1,3.3504531E0,8.467728E0,1.5761893E0,3.288231E1,2.2194843E0,1.1309688E0,6.2535686E0,2.2141585E0,2.8976452E0,2.9984665E1,1.086767E0,1.1327175E0,4.451529E0,1.8020395E0,1.1054348E0,1.7922105E0,3.7614875E0,2.6223177E1,2.950109E0,1.5014201E0,1.355873E0,2.4056146E0,4.860297E0,2.136288E1],"tree_param":{"num_deleted":"0","num_feature":"2","num_nodes":"29","size_leaf_vector":"0"}},{"base_weights":[-1.06510766E-1,-8.9387524E-1,2.2091731E-2,-1.8486525E-1,9.569712E-2,9.878379E-2,-5.7926357E-1,5.69593E-1,3.8147878E-2,-1.827657E-1,3.626052E-1,-7.449673E-1,-2.4309811E-1,1.9766448E-1,6.964684E-1,-4.4577208E-1,9.632509E-2,3.8794646E-1,-5.169108E-1,5.038967E-1,4.9186256E-2,2.5136527E-1,-5.99377E-1,-7.8423965E-1,1.7709401E-1,5.249407E-1,2.7234402E-2,-1.419608E-1,-6.316477E-1,1.6980842E-1,6.641509E-1,-3.661095E-1,1.1732156E-1],"categories":[],"categories_nodes":[],"categories_segments":[],"categories_sizes":[],"default_left":[true,false,true,true,true,true,true,true,true,true,true,false,true,false,false,true,true,false,true,false,false,false,false,false,false,true,true,false,false,false,false,false,false],"id":9,"left_children":[1,-1,3,5,7,9,11,13,15,17,19,-1,21,-1,-1,23,25,-1,27,-1,-1,-1,-1,-1,-1,29,31,-1,-1,-1,-1,-1,-1],"loss_changes":[5.25159E0,0E0,7.0913064E-1,1.4275544E0,9.0938205E-1,6.5896505E-1,1.124562E-1,3.340602E-2,9.3020964E-1,1.0634241E0,1.724742E-1,0E0,7.1869135E-1,0E0,0E0,8.8939023E-1,8.431865E-1,0E0,5.1552415E-2,0E0,0E0,0E0,0E0,0E0,0E0,8.3238125E-2,9.639519E-1,0E0,0E0,0E0,0E0,0E0,0E0],"parents":[2147483647,0,0,2,2,3,3,4,4,5,5,6,6,7,7,8,8,9,9,10,10,12,12,15,15,16,16,18,18,25,25,26,26],"right_children":[2,-1,4,6,8,10,12,14,16,18,20,-1,22,-1,-1,24,26,-1,28,-1,-1,-1,-1,-1,-1,30,32,-1,-1,-1,-1,-1,-1],"split_conditions":[1.11E3,-2.6816258E-1,1.903E3,1.6245E3,2.2665E3,1.396E3,1.6975E3,2.1405E3,2.442E3,1.314E3,1.5405E3,-2.234902E-1,1.8735E3,5.9299346E-2,2.0894054E-1,2.5655E3,2.868E3,1.1638394E-1,1.219E3,1.5116902E-1,1.4755878E-2,7.5409584E-2,-1.798131E-1,-2.352719E-1,5.3128205E-2,2.737E3,3.3305E3,-4.258824E-2,-1.8949433E-1,5.094253E-2,1.9924527E-1,-1.0983285E-1,3.519647E-2],"split_indices":[0,0,0,1,1,0,0,0,0,1,1,0,1,0,0,1,1,0,0,0,0,0,0,0,0,0,0,0,0,0,0,0,0],"split_type":[0,0,0,0,0,0,0,0,0,0,0,0,0,0,0,0,0,0,0,0,0,0,0,0,0,0,0,0,0,0,0,0,0],"sum_hessian":[5.0668934E1,6.278478E0,4.4390453E1,1.1249252E1,3.3141205E1,6.979307E0,4.2699447E0,2.625308E0,3.0515896E1,3.5248423E0,3.454465E0,2.0455654E0,2.2243795E0,1.3184077E0,1.3069005E0,2.5599375E0,2.7955957E1,1.242193E0,2.2826493E0,1.9621652E0,1.4922997E0,1.0548587E0,1.1695207E0,1.4907672E0,1.0691704E0,2.964894E0,2.4991064E1,1.059048E0,1.2236012E0,1.4600446E0,1.5048493E0,4.086108E0,2.0904955E1],"tree_param":{"num_deleted":"0","num_feature":"2","num_nodes":"33","size_leaf_vector":"0"}},{"base_weights":[-9.035345E-2,-8.19954E-1,1.9650577E-2,5.2230656E-2,-3.932812E-1,-3.8562708E-2,2.5836802E-1,-6.941734E-1,6.777012E-2,3.766559E-2,-6.881023E-1,8.036001E-1,6.490324E-2,-2.7063454E-2,7.5049615E-1,-8.3649147E-1,3.0852878E-1,2.462761E-2,-5.714933E-1,8.236384E-1,-5.7370126E-2],"categories":[],"categories_nodes":[],"categories_segments":[],"categories_sizes":[],"default_left":[true,false,true,true,true,true,true,false,false,true,false,false,true,true,false,false,true,false,false,false,false],"id":10,"left_children":[1,-1,3,5,7,9,11,-1,-1,13,-1,-1,15,17,-1,-1,19,-1,-1,-1,-1],"loss_changes":[3.8988593E0,0E0,5.9924954E-1,7.726916E-1,4.997058E-1,1.469821E0,1.2759845E0,0E0,0E0,1.2682878E0,0E0,0E0,2.5378418E0,7.390372E-1,0E0,0E0,1.7252748E0,0E0,0E0,0E0,0E0],"parents":[2147483647,0,0,2,2,3,3,4,4,5,5,6,6,9,9,12,12,13,13,16,16],"right_children":[2,-1,4,6,8,10,12,-1,-1,14,-1,-1,16,18,-1,-1,20,-1,-1,-1,-1],"split_conditions":[1.135E3,-2.4598621E-1,1.8004E4,4.6065E3,1.81745E4,4.1755E3,5.247E3,-2.0825203E-1,2.0331038E-2,3.718E3,-2.064307E-1,2.4108003E-1,5.49E3,3.5365E3,2.2514886E-1,-2.5094745E-1,6.0845E3,7.388283E-3,-1.71448E-1,2.4709152E-1,-1.7211039E-2],"split_indices":[0,0,0,0,1,0,0,0,0,0,0,0,0,0,0,0,1,0,0,0,0],"split_type":[0,0,0,0,0,0,0,0,0,0,0,0,0,0,0,0,0,0,0,0,0],"sum_hessian":[4.7377716E1,5.3617973E0,4.201592E1,3.9752945E1,2.262972E0,2.8161928E1,1.1591017E1,1.063365E0,1.199607E0,2.6047117E1,2.114811E0,2.2097268E0,9.38129E0,2.4760736E1,1.2863809E0,1.4782759E0,7.903014E0,2.348565E1,1.2750878E0,2.762703E0,5.1403112E0],"tree_param":{"num_deleted":"0","num_feature":"2","num_nodes":"21","size_leaf_vector":"0"}},{"base_weights":[-7.219444E-2,-8.115602E-1,1.3218088E-2,3.7349917E-2,-4.856915E-1,-1.6417114E-1,1.09373614E-1,4.1093912E-2,-6.327705E-1,6.371981E-1,6.680228E-2,-1.0667557E-1,5.966498E-1,-3.4626427E-1,1.17324695E-1,2.407332E-1,-4.3334976E-1,-4.2950913E-1,-9.252302E-2,6.640746E-1,6.878066E-2],"categories":[],"categories_nodes":[],"categories_segments":[],"categories_sizes":[],"default_left":[true,false,true,true,false,true,true,true,false,false,true,true,false,true,true,false,false,false,false,false,false],"id":11,"left_children":[1,-1,3,5,-1,7,9,11,-1,-1,13,15,-1,17,19,-1,-1,-1,-1,-1,-1],"loss_changes":[2.9661365E0,0E0,5.3507966E-1,6.25875E-1,0E0,1.1252136E0,6.6426337E-1,7.931238E-1,0E0,0E0,6.7140925E-1,9.971707E-1,0E0,3.518489E-2,6.889546E-1,0E0,0E0,0E0,0E0,0E0,0E0],"parents":[2147483647,0,0,2,2,3,3,5,5,6,6,7,7,10,10,11,11,13,13,14,14],"right_children":[2,-1,4,6,-1,8,10,12,-1,-1,14,16,-1,18,20,-1,-1,-1,-1,-1,-1],"split_conditions":[1.11E3,-2.4346808E-1,1.9382E4,1.903E3,-1.4570746E-1,1.706E3,2.04E3,1.5975E3,-1.8983115E-1,1.9115944E-1,2.369E3,1.4305E3,1.7899495E-1,2.277E3,2.52E3,7.221997E-2,-1.3000493E-1,-1.2885274E-1,-2.7756909E-2,1.9922239E-1,2.0634199E-2],"split_indices":[0,0,0,0,0,1,1,0,0,0,0,1,0,0,1,0,0,0,0,0,0],"split_type":[0,0,0,0,0,0,0,0,0,0,0,0,0,0,0,0,0,0,0,0,0],"sum_hessian":[4.579901E1,3.8624458E0,4.1936565E1,4.088417E1,1.0523953E0,1.0427842E1,3.0456327E1,7.8858376E0,2.542004E0,1.2306186E0,2.9225708E1,6.8672395E0,1.018598E0,2.547109E0,2.66786E1,3.4554958E0,3.4117436E0,1.3963147E0,1.1507941E0,1.1415477E0,2.5537052E1],"tree_param":{"num_deleted":"0","num_feature":"2","num_nodes":"21","size_leaf_vector":"0"}},{"base_weights":[-5.987407E-2,-7.6623833E-1,1.0310499E-2,3.1364568E-2,-4.1637963E-1,1.26809155E-5,4.874128E-1,4.0071137E-2,-5.021594E-1,-2.0664152E-2,3.6523882E-1,5.7247005E-2,-5.0451094E-1,7.5435174E-1,-7.72099E-2],"categories":[],"categories_nodes":[],"categories_segments":[],"categories_sizes":[],"default_left":[true,false,true,true,false,true,false,true,false,true,true,false,false,false,false],"id":12,"left_children":[1,-1,3,5,-1,7,-1,9,-1,11,13,-1,-1,-1,-1],"loss_changes":[2.2252998E0,0E0,3.8741946E-1,5.810934E-1,0E0,8.052151E-1,0E0,7.396615E-1,0E0,1.2420771E0,1.0719205E0,0E0,0E0,0E0,0E0],"parents":[2147483647,0,0,2,2,3,3,5,5,7,7,9,9,10,10],"right_children":[2,-1,4,6,-1,8,-1,10,-1,12,14,-1,-1,-1,-1],"split_conditions":[1.11E3,-2.2987151E-1,1.9382E4,1.46435E4,-1.2491389E-1,1.02035E4,1.4622384E-1,5.49E3,-1.5064783E-1,4.458E3,6.0845E3,1.7174102E-2,-1.5135328E-1,2.2630553E-1,-2.316297E-2],"split_indices":[0,0,0,1,0,0,0,0,0,1,1,0,0,0,0],"split_type":[0,0,0,0,0,0,0,0,0,0,0,0,0,0,0],"sum_hessian":[4.372739E1,3.055744E0,4.0671646E1,3.964209E1,1.029557E0,3.8027824E1,1.614266E0,3.607066E1,1.9571655E0,3.118275E1,4.887908E0,2.7617365E1,3.5653868E0,2.2256265E0,2.6622815E0],"tree_param":{"num_deleted":"0","num_feature":"2","num_nodes":"15","size_leaf_vector":"0"}},{"base_weights":[-4.9299814E-2,-7.193031E-1,7.4873473E-3,-1.086179E-1,8.784094E-2,3.4074587E-1,-1.6176227E-1,5.471315E-1,-1.2262124E-2,-5.154694E-1,-6.617973E-2,1.93862E-1,7.2926736E-1,-5.4904526E-1,7.4310936E-2,-1.4370267E-1,-6.249599E-1,3.172284E-1,-2.0906076E-1,-7.534728E-1,-9.5234945E-2,6.17642E-1,-4.007578E-2,4.253068E-1,5.6782153E-2,-5.724737E-1,-5.4259885E-2,-5.8768463E-1,6.0351036E-2],"categories":[],"categories_nodes":[],"categories_segments":[],"categories_sizes":[],"default_left":[true,false,true,true,true,false,true,true,true,true,true,false,false,true,true,false,false,true,true,false,false,false,true,false,false,false,false,false,false],"id":13,"left_children":[1,-1,3,5,7,-1,9,11,13,15,17,-1,-1,19,21,-1,-1,23,25,-1,-1,-1,27,-1,-1,-1,-1,-1,-1],"loss_changes":[1.6778951E0,0E0,3.9683935E-1,4.7128505E-1,1.160114E0,0E0,5.1566243E-1,1.4888728E-1,1.0434434E0,4.5015216E-2,8.3049184E-1,0E0,0E0,2.1728975E-1,1.234189E0,0E0,0E0,9.3633056E-2,5.7454395E-1,0E0,0E0,0E0,9.711841E-1,0E0,0E0,0E0,0E0,0E0,0E0],"parents":[2147483647,0,0,2,2,3,3,4,4,6,6,7,7,8,8,9,9,10,10,13,13,14,14,17,17,18,18,22,22],"right_children":[2,-1,4,6,8,-1,10,12,14,16,18,-1,-1,20,22,-1,-1,24,26,-1,-1,-1,28,-1,-1,-1,-1,-1,-1],"split_conditions":[1.11E3,-2.1579093E-1,2.7545E3,1.314E3,3.19E3,1.0222376E-1,1.396E3,3.0395E3,3.3815E3,1.219E3,1.6245E3,5.8158603E-2,2.1878022E-1,3.444E3,3.6885E3,-4.3110803E-2,-1.8748797E-1,1.5405E3,1.769E3,-2.2604185E-1,-2.8570484E-2,1.852926E-1,3.994E3,1.2759204E-1,1.7034646E-2,-1.7174211E-1,-1.6277967E-2,-1.763054E-1,1.8105311E-2],"split_indices":[0,0,0,1,1,0,0,0,0,0,1,0,0,1,1,0,0,1,0,0,0,0,1,0,0,0,0,0,0],"split_type":[0,0,0,0,0,0,0,0,0,0,0,0,0,0,0,0,0,0,0,0,0,0,0,0,0,0,0,0,0],"sum_hessian":[4.2958366E1,2.444952E0,4.0513412E1,1.6426514E1,2.4086899E1,1.1649069E0,1.5261607E1,3.511202E0,2.0575697E1,2.3122196E0,1.2949388E1,1.8967196E0,1.6144824E0,2.1156905E0,1.8460007E1,1.0521594E0,1.2600603E0,3.1843224E0,9.765065E0,1.0033754E0,1.112315E0,2.4453106E0,1.6014696E1,1.8030933E0,1.3812292E0,2.1110353E0,7.65403E0,1.7299159E0,1.42847805E1],"tree_param":{"num_deleted":"0","num_feature":"2","num_nodes":"29","size_leaf_vector":"0"}},{"base_weights":[-4.4130076E-2,-5.999083E-1,1.3134178E-2,3.959065E-2,-3.1138194E-1,-2.9506179E-2,1.9728614E-1,2.4717312E-2,-5.1464385E-1,7.3766077E-1,1.7203745E-2,-2.72529E-2,4.659799E-1,-5.535528E-1,2.1292949E-1,2.3059089E-2,-4.9210036E-1,6.9113714E-1,-4.1612536E-2],"categories":[],"categories_nodes":[],"categories_segments":[],"categories_sizes":[],"default_left":[true,false,true,true,false,true,true,true,false,false,true,true,false,false,true,false,false,false,false],"id":14,"left_children":[1,-1,3,5,-1,7,9,11,-1,-1,13,15,-1,-1,17,-1,-1,-1,-1],"loss_changes":[1.360301E0,0E0,3.514842E-1,4.134784E-1,0E0,7.199271E-1,1.10918E0,5.891181E-1,0E0,0E0,1.1982139E0,5.593552E-1,0E0,0E0,9.9324346E-1,0E0,0E0,0E0,0E0],"parents":[2147483647,0,0,2,2,3,3,5,5,6,6,7,7,10,10,11,11,14,14],"right_children":[2,-1,4,6,-1,8,10,12,-1,-1,14,16,-1,-1,18,-1,-1,-1,-1],"split_conditions":[1.1845E3,-1.799725E-1,1.8004E4,4.6065E3,-9.341458E-2,4.2775E3,5.247E3,3.718E3,-1.5439317E-1,2.2129823E-1,5.49E3,3.5365E3,1.3979398E-1,-1.6606584E-1,6.0845E3,6.9177267E-3,-1.4763011E-1,2.0734115E-1,-1.2483762E-2],"split_indices":[0,0,0,0,0,0,0,0,0,0,0,0,0,0,1,0,0,0,0],"split_type":[0,0,0,0,0,0,0,0,0,0,0,0,0,0,0,0,0,0,0],"sum_hessian":[4.149394E1,2.9907806E0,3.850316E1,3.641259E1,2.0905688E0,2.5883993E1,1.0528598E1,2.4135443E1,1.74855E0,1.8577608E0,8.670837E0,2.2431755E1,1.7036871E0,1.7473059E0,6.9235315E0,2.109858E1,1.3331753E0,1.80926E0,5.1142716E0],"tree_param":{"num_deleted":"0","num_feature":"2","num_nodes":"19","size_leaf_vector":"0"}},{"base_weights":[-3.4191538E-2,-6.297731E-1,6.2149833E-3,3.439671E-1,-1.2565988E-2,-4.5365196E-1,2.4590513E-2,-1.190407E-1,-5.5874115E-1,3.497256E-1,-1.3868492E-3,-4.3286344E-1,3.7362337E-2,5.129484E-1,1.5358188E-3],"categories":[],"categories_nodes":[],"categories_segments":[],"categories_sizes":[],"default_left":[true,false,true,false,true,true,true,false,false,false,true,false,true,false,false],"id":15,"left_children":[1,-1,3,-1,5,7,9,-1,-1,-1,11,-1,13,-1,-1],"loss_changes":[1.0078828E0,0E0,2.5842333E-1,0E0,6.4890444E-1,4.160577E-2,3.1162462E-1,0E0,0E0,0E0,6.0316616E-1,0E0,5.6380284E-1,0E0,0E0],"parents":[2147483647,0,0,2,2,4,4,5,5,6,6,10,10,12,12],"right_children":[2,-1,4,-1,6,8,10,-1,-1,-1,12,-1,14,-1,-1],"split_conditions":[1.11E3,-1.8893193E-1,1.314E3,1.0319014E-1,1.396E3,1.346E3,1.5405E3,-3.5712212E-2,-1.6762236E-1,1.0491768E-1,1.652E3,-1.2985905E-1,1.791E3,1.5388453E-1,4.6074565E-4],"split_indices":[0,0,1,0,0,1,1,0,0,0,0,0,1,0,0],"split_type":[0,0,0,0,0,0,0,0,0,0,0,0,0,0,0],"sum_hessian":[4.0718384E1,1.6602855E0,3.9058098E1,1.1453717E0,3.7912727E1,2.0746982E0,3.5838028E1,1.0055897E0,1.0691086E0,1.7294437E0,3.4108585E1,1.9725965E0,3.213599E1,1.3183069E0,3.0817682E1],"tree_param":{"num_deleted":"0","num_feature":"2","num_nodes":"15","size_leaf_vector":"0"}},{"base_weights":[-2.9276695E-2,-5.3136843E-1,8.415788E-3,2.530421E-1,-1.5988998E-2,-6.0849763E-2,4.675058E-1,-3.711178E-1,3.5899904E-2,-1.3387072E-1,-5.8375764E-1,3.3606914E-1,-2.193608E-3,-3.3738184E-1,1.5618643E-1,2.2777893E-2,5.7651734E-1,-5.7716346E-1,3.9974462E-2,1.3914926E-1,-8.529367E-2],"categories":[],"categories_nodes":[],"categories_segments":[],"categories_sizes":[],"default_left":[true,false,true,true,true,false,false,true,true,true,false,true,true,false,false,false,false,false,true,false,false],"id":16,"left_children":[1,-1,3,5,7,-1,-1,9,11,13,-1,15,17,-1,-1,-1,-1,-1,19,-1,-1],"loss_changes":[7.7794826E-1,0E0,2.368834E-1,2.7061522E-1,6.8414044E-1,0E0,0E0,1.604281E-1,3.7435296E-1,2.6123506E-1,0E0,2.6454487E-1,7.501494E-1,0E0,0E0,0E0,0E0,0E0,3.7058896E-1,0E0,0E0],"parents":[2147483647,0,0,2,2,3,3,4,4,7,7,8,8,9,9,11,11,12,12,18,18],"right_children":[2,-1,4,6,8,-1,-1,10,12,14,-1,16,18,-1,-1,-1,-1,-1,20,-1,-1],"split_conditions":[1.135E3,-1.5941054E-1,1.4305E3,1.335E3,1.694E3,-1.825493E-2,1.4025176E-1,1.623E3,2.04E3,1.5115E3,-1.751273E-1,1.903E3,2.2305E3,-1.0121456E-1,4.685593E-2,6.833368E-3,1.7295521E-1,-1.7314905E-1,4.458E3,4.174478E-2,-2.5588103E-2],"split_indices":[0,0,1,1,0,0,0,1,1,0,0,0,0,0,0,0,0,0,1,0,0],"split_type":[0,0,0,0,0,0,0,0,0,0,0,0,0,0,0,0,0,0,0,0,0],"sum_hessian":[3.9870434E1,1.8695245E0,3.800091E1,2.5973458E0,3.5403564E1,1.3450229E0,1.2523229E0,3.7291331E0,3.167443E1,2.5327983E0,1.1963348E0,2.6861212E0,2.898831E1,1.3925766E0,1.1402217E0,1.6417454E0,1.0443758E0,1.1138283E0,2.7874481E1,1.5495713E1,1.2378769E1],"tree_param":{"num_deleted":"0","num_feature":"2","num_nodes":"21","size_leaf_vector":"0"}},{"base_weights":[-2.7793264E-2,-5.4436696E-1,1.8262463E-3,-8.802118E-2,7.607906E-2,-1.24009885E-2,-4.0354073E-1,7.35022E-1,-1.9140985E-2,-8.0889136E-2,4.5367417E-1,-5.7209796E-1,6.256215E-2,3.3826664E-2,-3.859234E-1,5.4821694E-1,-1.9330695E-2,-1.0423892E-1,4.6449405E-1,-5.1658916E-1,-4.4399116E-2,-4.245151E-1,6.0330115E-2],"categories":[],"categories_nodes":[],"categories_segments":[],"categories_sizes":[],"default_left":[true,false,true,true,true,true,false,false,true,true,false,false,true,true,true,false,true,false,false,false,false,false,false],"id":17,"left_children":[1,-1,3,5,7,9,-1,-1,11,13,-1,-1,15,17,19,-1,21,-1,-1,-1,-1,-1,-1],"loss_changes":[6.146163E-1,0E0,2.663893E-1,4.263086E-1,1.3849784E0,5.3510255E-1,0E0,0E0,9.422957E-1,5.191169E-1,0E0,0E0,7.4173445E-1,7.279968E-1,1.5703958E-1,0E0,5.6453663E-1,0E0,0E0,0E0,0E0,0E0,0E0],"parents":[2147483647,0,0,2,2,3,3,4,4,5,5,8,8,9,9,12,12,13,13,14,14,16,16],"right_children":[2,-1,4,6,8,10,-1,-1,12,14,-1,-1,16,18,20,-1,22,-1,-1,-1,-1,-1,-1],"split_conditions":[1.11E3,-1.633101E-1,3.0395E3,2.844E3,3.3245E3,2.678E3,-1.2106223E-1,2.2050661E-1,3.561E3,2.2665E3,1.3610226E-1,-1.716294E-1,3.6885E3,1.903E3,2.4195E3,1.6446508E-1,3.994E3,-3.1271677E-2,1.3934822E-1,-1.5497676E-1,-1.3319735E-2,-1.2735453E-1,1.8099036E-2],"split_indices":[0,0,0,1,1,1,0,0,1,1,0,0,1,0,0,0,1,0,0,0,0,0,0],"split_type":[0,0,0,0,0,0,0,0,0,0,0,0,0,0,0,0,0,0,0,0,0,0,0],"sum_hessian":[3.910429E1,1.1781591E0,3.7926132E1,1.7077084E1,2.0849047E1,1.46138935E1,2.463191E0,1.7840245E0,1.9065023E1,1.3462126E1,1.1517671E0,1.6816521E0,1.7383371E1,1.0429105E1,3.0330215E0,1.6866422E0,1.5696729E1,8.471293E0,1.9578115E0,1.8229643E0,1.2100573E0,1.8677298E0,1.3828999E1],"tree_param":{"num_deleted":"0","num_feature":"2","num_nodes":"23","size_leaf_vector":"0"}},{"base_weights":[-2.1773726E-2,-5.033693E-1,4.0871445E-3,3.511491E-1,-1.5979597E-2,-4.0067232E-1,1.5872335E-2,2.5433385E-1,-1.716629E-2,3.4515977E-2,4.5845458E-1,-4.4721296E-1,2.8416643E-2,3.3538818E-1,-2.7095744E-1,-1.3257356E-1,-5.469865E-1,3.8103867E-1,-8.231707E-3],"categories":[],"categories_nodes":[],"categories_segments":[],"categories_sizes":[],"default_left":[true,false,true,false,true,false,true,true,true,true,false,true,true,false,false,false,false,false,false],"id":18,"left_children":[1,-1,3,-1,5,-1,7,9,11,13,-1,15,17,-1,-1,-1,-1,-1,-1],"loss_changes":[4.8949414E-1,0E0,2.71198E-1,0E0,4.5981365E-1,0E0,2.812069E-1,1.7887634E-1,6.3607275E-1,3.8229164E-1,0E0,2.5031924E-2,3.868525E-1,0E0,0E0,0E0,0E0,0E0,0E0],"parents":[2147483647,0,0,2,2,4,4,6,6,7,7,8,8,9,9,11,11,12,12],"right_children":[2,-1,4,-1,6,-1,8,10,12,14,-1,16,18,-1,-1,-1,-1,-1,-1],"split_conditions":[1.11E3,-1.5101078E-1,1.314E3,1.05344735E-1,1.396E3,-1.202017E-1,1.6835E3,1.6E3,1.903E3,1.4835E3,1.3753638E-1,1.793E3,2.2665E3,1.0061646E-1,-8.1287235E-2,-3.977207E-2,-1.6409597E-1,1.14311606E-1,-2.4695122E-3],"split_indices":[0,0,1,0,0,0,1,1,0,1,0,1,1,0,0,0,0,0,0],"split_type":[0,0,0,0,0,0,0,0,0,0,0,0,0,0,0,0,0,0,0],"sum_hessian":[3.8137466E1,1.0025681E0,3.71349E1,1.127926E0,3.6006973E1,1.867918E0,3.4139053E1,3.3392696E0,3.0799786E1,2.1707172E0,1.1685524E0,2.1073425E0,2.8692442E1,1.0442586E0,1.1264585E0,1.0680268E0,1.0393158E0,1.816579E0,2.6875864E1],"tree_param":{"num_deleted":"0","num_feature":"2","num_nodes":"19","size_leaf_vector":"0"}},{"base_weights":[-1.873992E-2,-1.136632E-1,8.425045E-2,-4.107726E-2,-5.166056E-1,7.2032166E-1,-9.002398E-3,-1.3732037E-1,3.8964152E-1,-2.1369195E-1,8.040634E-2,-5.9341438E-2,-4.999837E-1,7.731765E-2,5.762321E-1,-3.8192596E-2,-4.502175E-1,6.461519E-1,-4.3427616E-2,-1.4131969E-1,4.5500922E-1,-3.7750566E-1,2.6786542E-1,-4.2501178E-1,7.360564E-2,-6.0081255E-2,-4.6271247E-1,6.3850987E-1,-1.08655505E-1],"categories":[],"categories_nodes":[],"categories_segments":[],"categories_sizes":[],"default_left":[true,true,true,true,false,false,true,true,true,true,true,true,false,false,false,true,false,false,true,true,false,false,false,false,true,false,false,false,false],"id":19,"left_children":[1,3,5,7,-1,-1,9,11,13,15,17,19,-1,-1,-1,21,-1,-1,23,25,-1,-1,-1,-1,27,-1,-1,-1,-1],"loss_changes":[3.8609257E-1,5.7740986E-1,1.1362189E0,8.1748164E-1,0E0,0E0,3.3925435E-1,4.1724297E-1,1.6678935E-1,2.1623853E-1,9.370727E-1,6.6057074E-1,0E0,0E0,0E0,5.4984635E-1,0E0,0E0,5.4851353E-1,3.1058198E-1,0E0,0E0,0E0,0E0,1.0697296E0,0E0,0E0,0E0,0E0],"parents":[2147483647,0,0,1,1,2,2,3,3,6,6,7,7,8,8,9,9,10,10,11,11,15,15,18,18,19,19,24,24],"right_children":[2,4,6,8,-1,-1,10,12,14,16,18,20,-1,-1,-1,22,-1,-1,24,26,-1,-1,-1,-1,28,-1,-1,-1,-1],"split_conditions":[3.3815E3,3.19E3,3.5405E3,2.7545E3,-1.5498169E-1,2.160965E-1,4.6065E3,2.517E3,3.0395E3,4.298E3,5.247E3,2.581E3,-1.4999512E-1,2.3195295E-2,1.7286962E-1,3.8335E3,-1.3506526E-1,1.9384558E-1,5.49E3,2.2665E3,1.3650277E-1,-1.132517E-1,8.035963E-2,-1.2750354E-1,6.0845E3,-1.8024378E-2,-1.3881375E-1,1.9155297E-1,-3.259665E-2],"split_indices":[0,1,1,0,0,0,0,0,1,1,0,1,0,0,0,1,0,0,0,1,0,0,0,0,1,0,0,0,0],"split_type":[0,0,0,0,0,0,0,0,0,0,0,0,0,0,0,0,0,0,0,0,0,0,0,0,0,0,0,0,0],"sum_hessian":[3.751364E1,1.9467436E1,1.8046207E1,1.7429613E1,2.0378222E0,1.44763E0,1.6598577E1,1.48030815E1,2.6265311E0,4.623538E0,1.1975039E1,1.3141135E1,1.6619463E0,1.5112693E0,1.1152617E0,3.320923E0,1.3026149E0,1.3930206E0,1.0582018E1,1.1960149E1,1.1809863E0,1.4641924E0,1.8567306E0,1.8660992E0,8.7159195E0,1.0494416E1,1.4657327E0,1.5154941E0,7.200425E0],"tree_param":{"num_deleted":"0","num_feature":"2","num_nodes":"29","size_leaf_vector":"0"}},{"base_weights":[-7.501245E-3,-3.9949304E-1,1.7759372E-2,3.0277175E-1,-5.349044E-3,-2.5778115E-1,3.0641232E-2,-4.941156E-2,-3.2206947E-1,4.588736E-1,-3.3815273E-3,-4.1506714E-1,4.3369677E-2,3.831912E-1,3.2525382E-3],"categories":[],"categories_nodes":[],"categories_segments":[],"categories_sizes":[],"default_left":[true,false,true,false,true,true,true,false,false,false,true,false,true,false,false],"id":20,"left_children":[1,-1,3,-1,5,7,9,-1,-1,-1,11,-1,13,-1,-1],"loss_changes":[3.835978E-1,0E0,2.4319161E-1,0E0,3.2506353E-1,4.386413E-2,4.5973733E-1,0E0,0E0,0E0,5.978308E-1,0E0,3.799118E-1,0E0,0E0],"parents":[2147483647,0,0,2,2,4,4,5,5,6,6,10,10,12,12],"right_children":[2,-1,4,-1,6,8,10,-1,-1,-1,12,-1,14,-1,-1],"split_conditions":[1.135E3,-1.19847916E-1,1.385E3,9.0831526E-2,1.608E3,1.4835E3,1.791E3,-1.4823469E-2,-9.662084E-2,1.3766208E-1,2.2305E3,-1.24520145E-1,2.5035E3,1.1495736E-1,9.757615E-4],"split_indices":[0,0,1,0,0,1,1,0,0,0,0,0,1,0,0],"split_type":[0,0,0,0,0,0,0,0,0,0,0,0,0,0,0],"sum_hessian":[3.7023106E1,1.3444957E0,3.567861E1,1.7681793E0,3.391043E1,3.4624736E0,3.0447958E1,1.2334008E0,2.2290728E0,1.321938E0,2.9126019E1,2.1668427E0,2.6959177E1,1.9436057E0,2.5015572E1],"tree_param":{"num_deleted":"0","num_feature":"2","num_nodes":"15","size_leaf_vector":"0"}},{"base_weights":[-5.8647143E-3,-3.258577E-1,1.8122708E-2,3.9463107E-2,-2.2597292E-1,3.1724123E-3,4.1401455E-1,5.2263845E-2,-4.2325908E-1,-3.0403095E-4,5.1047707E-1,-5.915049E-1,-6.6454664E-2,6.1557334E-2,-3.0450317E-1],"categories":[],"categories_nodes":[],"categories_segments":[],"categories_sizes":[],"default_left":[true,false,true,true,false,true,false,true,true,true,false,false,false,false,false],"id":21,"left_children":[1,-1,3,5,-1,7,-1,9,11,13,-1,-1,-1,-1,-1],"loss_changes":[2.9393214E-1,0E0,1.9568744E-1,4.5843711E-1,0E0,6.887328E-1,0E0,7.094294E-1,1.6463488E-1,5.3464293E-1,0E0,0E0,0E0,0E0,0E0],"parents":[2147483647,0,0,2,2,3,3,5,5,7,7,8,8,9,9],"right_children":[2,-1,4,6,-1,8,-1,10,12,14,-1,-1,-1,-1,-1],"split_conditions":[1.1845E3,-9.775732E-2,1.8004E4,1.139E4,-6.779188E-2,7.136E3,1.2420437E-1,5.25E3,8.3135E3,4.458E3,1.5314312E-1,-1.7745146E-1,-1.99364E-2,1.84672E-2,-9.135096E-2],"split_indices":[0,0,0,1,0,0,0,1,0,1,0,0,0,0,0],"split_type":[0,0,0,0,0,0,0,0,0,0,0,0,0,0,0],"sum_hessian":[3.6523964E1,1.6694134E0,3.4854553E1,3.282326E1,2.0312893E0,3.0843292E1,1.9799699E0,2.8445986E1,2.3973057E0,2.641491E1,2.0310774E0,1.182113E0,1.2151926E0,2.2613842E1,3.8010669E0],"tree_param":{"num_deleted":"0","num_feature":"2","num_nodes":"15","size_leaf_vector":"0"}},{"base_weights":[-7.575731E-3,-9.2608616E-2,8.423116E-2,-3.0841634E-2,-4.2158604E-1,6.4892113E-1,6.3541564E-3,-1.10085696E-1,3.1072065E-1,9.203394E-3,-6.4679885E-1,-3.1738058E-1,5.6956936E-2,-3.7593834E-2,-4.391574E-1,4.8837755E-2,4.6950948E-1,4.2061207E-1,-4.61534E-2,-1.065915E-1,3.6469644E-1,-2.8290445E-2,7.0577055E-1,-5.290808E-1,6.942758E-2,-7.334364E-3,-3.6494532E-1,5.274534E-1,-6.972616E-2],"categories":[],"categories_nodes":[],"categories_segments":[],"categories_sizes":[],"default_left":[true,true,true,true,true,false,true,true,true,false,false,false,true,true,false,false,false,true,true,true,false,false,false,false,true,false,false,false,false],"id":22,"left_children":[1,3,5,7,9,-1,11,13,15,-1,-1,-1,17,19,-1,-1,-1,21,23,25,-1,-1,-1,-1,27,-1,-1,-1,-1],"loss_changes":[2.995212E-1,3.9088187E-1,8.09096E-1,5.163531E-1,3.031239E-1,0E0,3.008428E-1,3.4601843E-1,1.2744254E-1,0E0,0E0,0E0,6.109371E-1,4.149074E-1,0E0,0E0,0E0,4.7871417E-1,7.7305603E-1,3.1370673E-1,0E0,0E0,0E0,0E0,7.715369E-1,0E0,0E0,0E0,0E0],"parents":[2147483647,0,0,1,1,2,2,3,3,4,4,6,6,7,7,8,8,12,12,13,13,17,17,18,18,19,19,24,24],"right_children":[2,4,6,8,10,-1,12,14,16,-1,-1,-1,18,20,-1,-1,-1,22,24,26,-1,-1,-1,-1,28,-1,-1,-1,-1],"split_conditions":[3.3815E3,3.19E3,3.5405E3,2.7545E3,3.2545E3,1.9467635E-1,3.718E3,2.517E3,3.0395E3,2.7610182E-3,-1.9403966E-1,-9.521418E-2,4.458E3,2.581E3,-1.3174723E-1,1.4651327E-2,1.4085285E-1,3.994E3,4.677E3,2.04E3,1.0940894E-1,-8.487134E-3,2.1173118E-1,-1.5872425E-1,5.441E3,-2.2003094E-3,-1.094836E-1,1.5823603E-1,-2.091785E-2],"split_indices":[0,1,1,0,0,0,0,0,1,0,0,0,1,1,0,0,0,1,1,1,0,0,0,0,0,0,0,0,0],"split_type":[0,0,0,0,0,0,0,0,0,0,0,0,0,0,0,0,0,0,0,0,0,0,0,0,0,0,0,0,0],"sum_hessian":[3.6368446E1,1.8876251E1,1.7492193E1,1.681324E1,2.0630112E0,1.2313042E0,1.626089E1,1.4197137E1,2.6161034E0,1.0375361E0,1.0254751E0,1.4854732E0,1.4775416E1,1.2547308E1,1.6498295E0,1.4810469E0,1.1350565E0,2.583731E0,1.2191685E1,1.1337779E1,1.2095284E0,1.3536217E0,1.2301093E0,1.6635141E0,1.0528171E1,8.933862E0,2.4039176E0,1.8030336E0,8.725138E0],"tree_param":{"num_deleted":"0","num_feature":"2","num_nodes":"29","size_leaf_vector":"0"}},{"base_weights":[-9.1034407E-4,-8.901024E-2,7.274371E-2,-1.1789684E-2,-3.60559E-1,6.201978E-1,5.199517E-3,-9.931754E-2,5.617338E-1,-5.4419196E-1,-3.9448604E-2,-5.116583E-1,8.070094E-2,-3.2698553E-2,-4.4850922E-1,5.5755794E-1,-2.6017397E-3,-1.0170678E-1,2.3277242E-1,-3.2031024E-1,6.3156426E-2,-9.508649E-3,-4.4977087E-1,6.395612E-1,-3.25757E-2],"categories":[],"categories_nodes":[],"categories_segments":[],"categories_sizes":[],"default_left":[true,true,true,true,true,false,true,true,false,false,false,false,true,true,false,false,true,true,false,false,true,false,false,false,false],"id":23,"left_children":[1,3,5,7,9,-1,11,13,-1,-1,-1,-1,15,17,-1,-1,19,21,-1,-1,23,-1,-1,-1,-1],"loss_changes":[2.4711062E-1,3.592667E-1,7.6399183E-1,7.8525245E-1,2.0287031E-1,0E0,8.0139077E-1,2.983828E-1,0E0,0E0,0E0,0E0,7.108765E-1,2.5046602E-1,0E0,0E0,3.5864958E-1,3.3336636E-1,0E0,0E0,8.074927E-1,0E0,0E0,0E0,0E0],"parents":[2147483647,0,0,1,1,2,2,3,3,4,4,6,6,7,7,12,12,13,13,16,16,17,17,20,20],"right_children":[2,4,6,8,10,-1,12,14,-1,-1,-1,-1,16,18,-1,-1,20,22,-1,-1,24,-1,-1,-1,-1],"split_conditions":[3.0395E3,2.802E3,3.3245E3,2.531E3,3.0395E3,1.8605934E-1,3.561E3,2.387E3,1.6852014E-1,-1.632576E-1,-1.1834581E-2,-1.534975E-1,3.6885E3,2.2305E3,-1.3455278E-1,1.6726738E-1,3.994E3,1.8995E3,6.983173E-2,-9.609307E-2,4.458E3,-2.8525947E-3,-1.3493127E-1,1.9186836E-1,-9.7727105E-3],"split_indices":[0,1,1,0,1,0,1,0,0,0,0,0,1,0,0,0,1,1,0,0,1,0,0,0,0],"split_type":[0,0,0,0,0,0,0,0,0,0,0,0,0,0,0,0,0,0,0,0,0,0,0,0,0],"sum_hessian":[3.608412E1,1.6335835E1,1.9748287E1,1.3531334E1,2.8045006E0,1.270294E0,1.8477993E1,1.2457041E1,1.0742928E0,1.3422122E0,1.4622884E0,1.6188788E0,1.6859114E1,1.13796625E1,1.0773778E0,1.6605161E0,1.5198598E1,9.521472E0,1.8581908E0,1.9424894E0,1.3256109E1,8.339701E0,1.1817712E0,1.0789565E0,1.2177153E1],"tree_param":{"num_deleted":"0","num_feature":"2","num_nodes":"25","size_leaf_vector":"0"}},{"base_weights":[2.760994E-3,-1.7933216E-2,3.100461E-1,1.8651312E-2,-3.035565E-1,-1.9856373E-2,4.6088535E-1,-3.9928403E-1,-2.8694568E-2,8.434891E-3,-3.4162208E-1,-4.304648E-2,2.6136482E-1,-5.63247E-3,-2.7370515E-1,6.2144065E-1,6.8820664E-3],"categories":[],"categories_nodes":[],"categories_segments":[],"categories_sizes":[],"default_left":[true,true,false,true,true,true,false,false,false,true,false,true,true,false,false,false,false],"id":24,"left_children":[1,3,-1,5,7,9,-1,-1,-1,11,-1,13,15,-1,-1,-1,-1],"loss_changes":[2.378624E-1,3.7318233E-1,0E0,5.561379E-1,9.514177E-2,2.8058216E-1,0E0,0E0,0E0,3.8907865E-1,0E0,2.1392718E-1,4.5834205E-1,0E0,0E0,0E0,0E0],"parents":[2147483647,0,0,1,1,3,3,4,4,5,5,9,9,11,11,12,12],"right_children":[2,4,-1,6,8,10,-1,-1,-1,12,-1,14,16,-1,-1,-1,-1],"split_conditions":[1.81745E4,1.02035E4,9.301384E-2,7.369E3,1.46435E4,6.3305E3,1.3826561E-1,-1.1978521E-1,-8.608371E-3,4.6065E3,-1.0248663E-1,4.1755E3,4.535E3,-1.689741E-3,-8.211155E-2,1.864322E-1,2.06462E-3],"split_indices":[1,0,0,0,1,0,0,0,0,0,0,0,1,0,0,0,0],"split_type":[0,0,0,0,0,0,0,0,0,0,0,0,0,0,0,0,0],"sum_hessian":[3.5531128E1,3.417148E1,1.3596488E0,3.1120108E1,3.0513706E0,2.9505964E1,1.6141427E0,1.9274254E0,1.1239452E0,2.8016407E1,1.4895581E0,2.3967806E1,4.0486E0,2.1504145E1,2.4636624E0,1.0793778E0,2.9692223E0],"tree_param":{"num_deleted":"0","num_feature":"2","num_nodes":"17","size_leaf_vector":"0"}},{"base_weights":[5.5588866E-3,-7.057989E-2,8.7441444E-2,-1.2374605E-2,-3.7843433E-1,6.043219E-1,1.9238327E-2,-7.225884E-2,2.5328368E-1,-1.0665621E-2,-5.561966E-1,-2.2696492E-1,5.8509488E-2,-1.0892643E-2,-3.6368886E-1,2.2492787E-2,3.8546962E-1,3.4646848E-1,-1.727228E-2,-7.353856E-2,3.37029E-1,-4.0689132E-1,7.698255E-2,-6.7109574E-4,-3.8137856E-1,4.634397E-1,-3.6880028E-2],"categories":[],"categories_nodes":[],"categories_segments":[],"categories_sizes":[],"default_left":[true,true,true,true,true,false,true,true,true,false,false,false,true,true,false,false,false,false,true,true,false,false,true,false,false,false,false],"id":25,"left_children":[1,3,5,7,9,-1,11,13,15,-1,-1,-1,17,19,-1,-1,-1,-1,21,23,-1,-1,25,-1,-1,-1,-1],"loss_changes":[2.3302096E-1,3.430823E-1,6.221712E-1,2.9441017E-1,1.9360304E-1,0E0,1.7683247E-1,2.632454E-1,9.5499694E-2,0E0,0E0,0E0,3.4168947E-1,3.1626377E-1,0E0,0E0,0E0,0E0,5.1354784E-1,2.7236548E-1,0E0,0E0,5.193539E-1,0E0,0E0,0E0,0E0],"parents":[2147483647,0,0,1,1,2,2,3,3,4,4,6,6,7,7,8,8,12,12,13,13,18,18,19,19,22,22],"right_children":[2,4,6,8,10,-1,12,14,16,-1,-1,-1,18,20,-1,-1,-1,-1,22,24,-1,-1,26,-1,-1,-1,-1],"split_conditions":[3.3815E3,3.19E3,3.5405E3,2.7545E3,3.2545E3,1.8129657E-1,3.718E3,2.517E3,3.0395E3,-3.1996863E-3,-1.6685897E-1,-6.808948E-2,4.458E3,2.581E3,-1.0910666E-1,6.7478362E-3,1.15640886E-1,1.0394055E-1,4.677E3,2.2665E3,1.0110871E-1,-1.220674E-1,5.441E3,-2.0132873E-4,-1.14413574E-1,1.3903192E-1,-1.1064009E-2],"split_indices":[0,1,1,0,0,0,0,0,1,0,0,0,1,1,0,0,0,0,1,1,0,0,0,0,0,0,0],"split_type":[0,0,0,0,0,0,0,0,0,0,0,0,0,0,0,0,0,0,0,0,0,0,0,0,0,0,0],"sum_hessian":[3.5386505E1,1.8407896E1,1.697861E1,1.6355751E1,2.052145E0,1.0628827E0,1.5915726E1,1.3941159E1,2.414591E0,1.0140979E0,1.0380471E0,1.5319597E0,1.4383766E1,1.2373135E1,1.5680248E0,1.3054653E0,1.1091257E0,2.2525396E0,1.2131227E1,1.1153498E1,1.2196366E0,1.7169561E0,1.041427E1,9.82908E0,1.3244185E0,1.6713684E0,8.742902E0],"tree_param":{"num_deleted":"0","num_feature":"2","num_nodes":"27","size_leaf_vector":"0"}},{"base_weights":[6.197255E-3,-2.0456016E-1,3.4758214E-2,1.7997165E-1,-4.3332478E-1,2.683582E-1,5.0592087E-3,-5.8318335E-1,-6.780612E-2,-4.265253E-1,4.0793855E-2,3.716386E-1,9.359081E-3,-2.6350358E-1,5.2266486E-2,6.0912114E-2,-4.6358025E-1,4.7424895E-1,-1.9418146E-4],"categories":[],"categories_nodes":[],"categories_segments":[],"categories_sizes":[],"default_left":[true,true,true,false,true,false,true,false,false,false,true,false,true,true,true,false,false,false,false],"id":26,"left_children":[1,3,5,-1,7,-1,9,-1,-1,-1,11,-1,13,15,17,-1,-1,-1,-1],"loss_changes":[2.244319E-1,4.6978527E-1,2.2515388E-1,0E0,1.2949681E-1,0E0,4.7985822E-1,0E0,0E0,0E0,2.9402184E-1,0E0,3.3163327E-1,2.7843425E-1,5.379176E-1,0E0,0E0,0E0,0E0],"parents":[2147483647,0,0,1,1,2,2,4,4,6,6,10,10,12,12,13,13,14,14],"right_children":[2,4,6,-1,8,-1,10,-1,-1,-1,12,-1,14,16,18,-1,-1,-1,-1],"split_conditions":[1.396E3,1.242E3,1.6245E3,5.3991497E-2,1.335E3,8.0507465E-2,1.769E3,-1.7495501E-1,-2.0341836E-2,-1.279576E-1,2.04E3,1.1149158E-1,2.442E3,2.319E3,2.802E3,1.8273635E-2,-1.3907409E-1,1.422747E-1,-5.8254438E-5],"split_indices":[0,1,1,0,1,0,0,0,0,0,1,0,0,0,1,0,0,0,0],"split_type":[0,0,0,0,0,0,0,0,0,0,0,0,0,0,0,0,0,0,0],"sum_hessian":[3.510335E1,3.4539187E0,3.1649433E1,1.3678987E0,2.08602E0,2.6635025E0,2.8985931E1,1.057118E0,1.028902E0,1.3802372E0,2.7605694E1,1.4562649E0,2.614943E1,2.8546338E0,2.3294794E1,1.3542813E0,1.5003526E0,1.6867611E0,2.1608034E1],"tree_param":{"num_deleted":"0","num_feature":"2","num_nodes":"19","size_leaf_vector":"0"}},{"base_weights":[2.7598876E-3,-2.9774287E-1,2.1937456E-2,3.2123291E-1,3.1830965E-5,-2.5219065E-1,3.4006596E-2,-5.960951E-1,1.3255939E-1,4.8868275E-1,4.1574353E-4,-4.186999E-1,3.7611403E-2,3.7798458E-1,2.09912E-3],"categories":[],"categories_nodes":[],"categories_segments":[],"categories_sizes":[],"default_left":[true,false,true,false,true,true,true,false,false,false,true,false,true,false,false],"id":27,"left_children":[1,-1,3,-1,5,7,9,-1,-1,-1,11,-1,13,-1,-1],"loss_changes":[2.1216296E-1,0E0,2.2600128E-1,0E0,2.92403E-1,6.150006E-1,4.5907012E-1,0E0,0E0,0E0,4.6788532E-1,0E0,3.3229402E-1,0E0,0E0],"parents":[2147483647,0,0,2,2,4,4,5,5,6,6,10,10,12,12],"right_children":[2,-1,4,-1,6,8,10,-1,-1,-1,12,-1,14,-1,-1],"split_conditions":[1.135E3,-8.9322865E-2,1.3405E3,9.636988E-2,1.617E3,1.433E3,1.706E3,-1.7882854E-1,3.9767817E-2,1.4660484E-1,1.903E3,-1.2560998E-1,2.2665E3,1.1339538E-1,6.2973605E-4],"split_indices":[0,0,1,0,1,0,1,0,0,0,0,0,1,0,0],"split_type":[0,0,0,0,0,0,0,0,0,0,0,0,0,0,0],"sum_hessian":[3.4681824E1,1.2091697E0,3.3472656E1,1.350905E0,3.212175E1,3.0507386E0,2.907101E1,1.3208272E0,1.7299113E0,1.0679159E0,2.8003096E1,1.4465768E0,2.6556519E1,1.5978544E0,2.4958664E1],"tree_param":{"num_deleted":"0","num_feature":"2","num_nodes":"15","size_leaf_vector":"0"}},{"base_weights":[1.5459924E-3,-7.49188E-2,7.565389E-2,3.7098213E-3,-3.0126992E-1,6.056116E-1,6.4083003E-3,-7.854655E-2,3.3062893E-1,-4.2822018E-1,-7.939102E-2,-2.5344893E-1,5.697724E-2,-9.456459E-3,-3.368431E-1,3.0126706E-1,-1.7857423E-2,-8.316846E-2,3.1259802E-1,4.287478E-1,1.129609E-2,-2.8812665E-1,1.05633155E-1,4.772168E-3,-3.4791833E-1,-7.416193E-2,-4.619738E-1,5.9217614E-1,-4.4070587E-2],"categories":[],"categories_nodes":[],"categories_segments":[],"categories_sizes":[],"default_left":[true,true,true,true,true,false,true,true,false,false,false,false,true,true,false,true,true,true,false,false,false,true,true,false,false,false,false,false,false],"id":28,"left_children":[1,3,5,7,9,-1,11,13,-1,-1,-1,-1,15,17,-1,19,21,23,-1,-1,-1,25,27,-1,-1,-1,-1,-1,-1],"loss_changes":[2.0597848E-1,3.1970164E-1,6.7313707E-1,4.09792E-1,9.633881E-2,0E0,2.4213578E-1,2.1474448E-1,0E0,0E0,0E0,0E0,2.854727E-1,2.791451E-1,0E0,1.3003683E-1,4.5338774E-1,2.2208208E-1,0E0,0E0,0E0,1.235514E-1,7.129433E-1,0E0,0E0,0E0,0E0,0E0,0E0],"parents":[2147483647,0,0,1,1,2,2,3,3,4,4,6,6,7,7,12,12,13,13,15,15,16,16,17,17,21,21,22,22],"right_children":[2,4,6,8,10,-1,12,14,-1,-1,-1,-1,16,18,-1,20,22,24,-1,-1,-1,26,28,-1,-1,-1,-1,-1,-1],"split_conditions":[3.3305E3,2.868E3,3.493E3,2.442E3,3.1105E3,1.816835E-1,3.718E3,2.319E3,9.9188685E-2,-1.2846605E-1,-2.3817306E-2,-7.603468E-2,4.5535E3,2.047E3,-1.0105293E-1,4.298E3,5.49E3,1.791E3,9.377941E-2,1.2862435E-1,3.388827E-3,5.383E3,6.0845E3,1.4316505E-3,-1.04375504E-1,-2.2248581E-2,-1.3859214E-1,1.7765285E-1,-1.3221176E-2],"split_indices":[0,1,1,0,1,0,0,0,0,0,0,0,0,0,0,1,0,1,0,0,0,0,1,0,0,0,0,0,0],"split_type":[0,0,0,0,0,0,0,0,0,0,0,0,0,0,0,0,0,0,0,0,0,0,0,0,0,0,0,0,0],"sum_hessian":[3.4349064E1,1.6900316E1,1.744875E1,1.3273166E1,3.62715E0,1.1212935E0,1.6327456E1,1.1211874E1,2.0612912E0,1.7155869E0,1.9115632E0,2.0062165E0,1.4321239E1,9.663625E0,1.54825E0,2.6487868E0,1.1672452E1,8.467366E0,1.1962587E0,1.5074663E0,1.1413205E0,3.2425904E0,8.429862E0,7.093221E0,1.3741448E0,2.0930872E0,1.149503E0,1.2880372E0,7.1418247E0],"tree_param":{"num_deleted":"0","num_feature":"2","num_nodes":"29","size_leaf_vector":"0"}},{"base_weights":[4.368126E-3,-6.9626264E-2,8.31923E-2,-1.0895326E-2,-5.209333E-1,5.1178646E-1,8.343069E-3,-6.867759E-2,3.8949215E-1,-2.4908127E-1,6.327526E-2,-1.3362456E-2,-3.3197132E-1,3.4956583E-1,-1.7333174E-2,-7.24137E-2,2.9790014E-1,-2.657661E-1,8.237727E-2,8.030015E-3,-4.2437002E-1,-3.996628E-3,-4.0750235E-1,4.4552922E-1,-6.64446E-2],"categories":[],"categories_nodes":[],"categories_segments":[],"categories_sizes":[],"default_left":[true,true,true,true,false,false,true,true,false,false,true,true,false,false,true,true,false,true,true,false,false,false,false,false,false],"id":29,"left_children":[1,3,5,7,-1,-1,9,11,-1,-1,13,15,-1,-1,17,19,-1,21,23,-1,-1,-1,-1,-1,-1],"loss_changes":[2.0841064E-1,4.8369798E-1,5.4995203E-1,4.2833918E-1,0E0,0E0,2.3811626E-1,2.2887075E-1,0E0,0E0,3.2352147E-1,2.840454E-1,0E0,0E0,3.113922E-1,3.6601815E-1,0E0,1.3133848E-1,5.2157646E-1,0E0,0E0,0E0,0E0,0E0,0E0],"parents":[2147483647,0,0,1,1,2,2,3,3,6,6,7,7,10,10,11,11,14,14,15,15,17,17,18,18],"right_children":[2,4,6,8,-1,-1,10,12,-1,-1,14,16,-1,-1,18,20,-1,22,24,-1,-1,-1,-1,-1,-1],"split_conditions":[3.561E3,3.373E3,3.6885E3,3.0395E3,-1.5627998E-1,1.5353595E-1,3.994E3,2.766E3,1.1684765E-1,-7.472438E-2,4.6555E3,2.679E3,-9.95914E-2,1.0486975E-1,5.25E3,2.5035E3,8.937004E-2,4.981E3,7.136E3,2.4090046E-3,-1.27311E-1,-1.1989884E-3,-1.2225071E-1,1.3365877E-1,-1.993338E-2],"split_indices":[1,1,1,0,0,0,1,0,0,0,1,1,0,0,1,1,0,1,0,0,0,0,0,0,0],"split_type":[0,0,0,0,0,0,0,0,0,0,0,0,0,0,0,0,0,0,0,0,0,0,0,0,0],"sum_hessian":[3.3739246E1,1.746297E1,1.6276278E1,1.6358318E1,1.1046517E0,1.5519708E0,1.4724306E1,1.5019272E1,1.3390468E0,1.9679095E0,1.2756396E1,1.3280033E1,1.7392385E0,2.0695498E0,1.0686847E1,1.1807354E1,1.4726796E0,2.5838046E0,8.103042E0,1.0406102E1,1.4012513E0,1.2687593E0,1.3150455E0,1.7758769E0,6.3271646E0],"tree_param":{"num_deleted":"0","num_feature":"2","num_nodes":"25","size_leaf_vector":"0"}},{"base_weights":[3.9521833E-3,-1.6005067E-2,2.821746E-1,9.520092E-3,-2.7014983E-1,-2.857804E-2,3.9000726E-1,1.2769596E-2,-5.844024E-1,-2.6338056E-2,3.7033454E-1,3.8015265E-3,-3.6242676E-1],"categories":[],"categories_nodes":[],"categories_segments":[],"categories_sizes":[],"default_left":[true,true,false,true,false,true,false,true,false,true,false,false,false],"id":30,"left_children":[1,3,-1,5,-1,7,-1,9,-1,11,-1,-1,-1],"loss_changes":[1.9545275E-1,2.1685281E-1,0E0,4.6027207E-1,0E0,6.7612135E-1,0E0,4.0211725E-1,0E0,2.6703864E-1,0E0,0E0,0E0],"parents":[2147483647,0,0,1,1,3,3,5,5,7,7,9,9],"right_children":[2,4,-1,6,-1,8,-1,10,-1,12,-1,-1,-1],"split_conditions":[1.81745E4,1.35465E4,8.465238E-2,8.4065E3,-8.104495E-2,6.745E3,1.1700218E-1,5.49E3,-1.7532071E-1,5.383E3,1.1110037E-1,1.140458E-3,-1.0872803E-1],"split_indices":[1,0,0,1,0,1,0,0,0,0,0,0,0],"split_type":[0,0,0,0,0,0,0,0,0,0,0,0,0],"sum_hessian":[3.338715E1,3.203193E1,1.3552177E0,2.9983103E1,2.048828E0,2.809486E1,1.8882438E0,2.7058975E1,1.0358846E0,2.5226263E1,1.8327107E0,2.4057533E1,1.1687297E0],"tree_param":{"num_deleted":"0","num_feature":"2","num_nodes":"13","size_leaf_vector":"0"}},{"base_weights":[1.7405769E-3,-2.0739879E-1,2.3517584E-2,1.671079E-1,-5.3187096E-1,4.447893E-1,-5.760451E-3,-3.4783402E-1,3.0617837E-2,4.0748918E-1,1.2140946E-3,-3.407784E-1,3.0748254E-2,3.2043293E-1,1.9474229E-4],"categories":[],"categories_nodes":[],"categories_segments":[],"categories_sizes":[],"default_left":[true,true,true,false,false,false,true,false,true,false,true,false,true,false,false],"id":31,"left_children":[1,3,5,-1,-1,-1,7,-1,9,-1,11,-1,13,-1,-1],"loss_changes":[1.6055617E-1,4.9297553E-1,3.9547908E-1,0E0,0E0,0E0,3.9359668E-1,0E0,3.1792465E-1,0E0,2.8983554E-1,0E0,2.3339267E-1,0E0,0E0],"parents":[2147483647,0,0,1,1,2,2,6,6,8,8,10,10,12,12],"right_children":[2,4,6,-1,-1,-1,8,-1,10,-1,12,-1,14,-1,-1],"split_conditions":[1.335E3,1.242E3,1.4305E3,5.013237E-2,-1.5956129E-1,1.334368E-1,1.617E3,-1.0435021E-1,1.706E3,1.2224676E-1,1.903E3,-1.0223353E-1,2.2665E3,9.612989E-2,5.8422687E-5],"split_indices":[1,1,1,0,0,0,1,0,1,0,0,0,1,0,0],"split_type":[0,0,0,0,0,0,0,0,0,0,0,0,0,0,0],"sum_hessian":[3.318181E1,2.3254254E0,3.0856384E1,1.3046176E0,1.0208077E0,1.0829061E0,2.977348E1,2.0389712E0,2.7734509E1,1.0766422E0,2.6657866E1,1.2813977E0,2.5376469E1,1.5159365E0,2.386053E1],"tree_param":{"num_deleted":"0","num_feature":"2","num_nodes":"15","size_leaf_vector":"0"}},{"base_weights":[1.9492925E-3,-2.5974846E-1,1.9225122E-2,2.981123E-1,-1.8481613E-3,-2.3073381E-1,2.9812979E-2,2.47364E-2,-3.3751896E-1,3.3462077E-1,-9.367547E-4,-3.2076222E-1,3.2575708E-2,3.392979E-1,-2.0616977E-3],"categories":[],"categories_nodes":[],"categories_segments":[],"categories_sizes":[],"default_left":[true,false,true,false,true,true,true,false,false,false,true,false,true,false,false],"id":32,"left_children":[1,-1,3,-1,5,7,9,-1,-1,-1,11,-1,13,-1,-1],"loss_changes":[1.5863752E-1,0E0,1.9338171E-1,0E0,2.3514865E-1,1.15893364E-1,2.6797408E-1,0E0,0E0,0E0,2.9916978E-1,0E0,2.6938713E-1,0E0,0E0],"parents":[2147483647,0,0,2,2,4,4,5,5,6,6,10,10,12,12],"right_children":[2,-1,4,-1,6,8,10,-1,-1,-1,12,-1,14,-1,-1],"split_conditions":[1.135E3,-7.792454E-2,1.3405E3,8.943369E-2,1.562E3,1.411E3,1.791E3,7.4209203E-3,-1.0125569E-1,1.0038624E-1,2.2305E3,-9.622867E-2,2.5035E3,1.0178937E-1,-6.185093E-4],"split_indices":[0,0,1,0,0,0,1,0,0,0,0,0,1,0,0],"split_type":[0,0,0,0,0,0,0,0,0,0,0,0,0,0,0],"sum_hessian":[3.2984135E1,1.1734288E0,3.1810705E1,1.3112295E0,3.0499475E1,2.94218E0,2.7557297E1,1.0937861E0,1.8483938E0,1.6197177E0,2.5937578E1,1.6470984E0,2.429048E1,1.5722386E0,2.271824E1],"tree_param":{"num_deleted":"0","num_feature":"2","num_nodes":"15","size_leaf_vector":"0"}},{"base_weights":[1.945286E-3,-6.1141E-2,6.88719E-2,-1.6887387E-3,-4.176011E-1,4.0412968E-1,-2.793682E-3,-5.9254166E-2,2.9807243E-1,-2.8020978E-1,6.2926576E-2,1.2179218E-2,-2.967496E-1,3.5978636E-1,-2.7483473E-2,-5.8991656E-2,3.6215514E-1,-4.5046481E-1,-6.050038E-3,-1.9794218E-1,1.2952428E-1,2.2513667E-2,-2.844597E-1,-6.660858E-3,-4.906906E-1,3.0808848E-1,-1.8050425E-1],"categories":[],"categories_nodes":[],"categories_segments":[],"categories_sizes":[],"default_left":[true,true,true,true,false,false,true,true,false,false,true,true,true,false,true,true,false,false,false,true,true,false,false,false,false,false,false],"id":33,"left_children":[1,3,5,7,-1,-1,9,11,-1,-1,13,15,17,-1,19,21,-1,-1,-1,23,25,-1,-1,-1,-1,-1,-1],"loss_changes":[1.4659837E-1,3.7842098E-1,4.0559393E-1,2.9956412E-1,0E0,0E0,2.8860423E-1,2.5026852E-1,0E0,0E0,3.5430247E-1,3.2369053E-1,1.4925933E-1,0E0,3.137661E-1,2.0756492E-1,0E0,0E0,0E0,3.0792588E-1,3.9931124E-1,0E0,0E0,0E0,0E0,0E0,0E0],"parents":[2147483647,0,0,1,1,2,2,3,3,6,6,7,7,10,10,11,11,12,12,14,14,15,15,19,19,20,20],"right_children":[2,4,6,8,-1,-1,10,12,-1,-1,14,16,18,-1,20,22,-1,-1,-1,24,26,-1,-1,-1,-1,-1,-1],"split_conditions":[3.561E3,3.3245E3,3.7035E3,2.8835E3,-1.2528034E-1,1.2123891E-1,4.5105E3,2.517E3,8.9421734E-2,-8.4062934E-2,4.6555E3,2.581E3,2.737E3,1.0793591E-1,8.4065E3,2.04E3,1.0864655E-1,-1.3513945E-1,-1.8150115E-3,7.136E3,1.8004E4,6.7541003E-3,-8.5337915E-2,-1.9982576E-3,-1.4720719E-1,9.2426546E-2,-5.4151278E-2],"split_indices":[1,1,0,0,0,0,0,0,0,0,1,1,0,0,1,1,0,0,0,0,0,0,0,0,0,0,0],"split_type":[0,0,0,0,0,0,0,0,0,0,0,0,0,0,0,0,0,0,0,0,0,0,0,0,0,0,0],"sum_hessian":[3.2723915E1,1.6889757E1,1.5834157E1,1.5336581E1,1.5531768E0,1.9716241E0,1.3862533E1,1.3538926E1,1.7976549E0,2.0299795E0,1.1832553E1,1.1137677E1,2.4012494E0,2.06679E0,9.765763E0,9.946421E0,1.1912566E0,1.2112038E0,1.1900456E0,4.5573096E0,5.208453E0,7.966666E0,1.9797541E0,3.3749049E0,1.1824046E0,3.3089097E0,1.8995438E0],"tree_param":{"num_deleted":"0","num_feature":"2","num_nodes":"27","size_leaf_vector":"0"}},{"base_weights":[-1.216673E-3,-1.9924987E-2,2.569754E-1,1.1556194E-2,-2.4698597E-1,-2.3625687E-2,4.0538287E-1,-3.8785854E-1,2.5373591E-2,8.395682E-3,-2.7420726E-1,-3.4724753E-2,3.526753E-1,-3.8164806E-1,-4.0824436E-2,9.790237E-3,-3.879191E-1],"categories":[],"categories_nodes":[],"categories_segments":[],"categories_sizes":[],"default_left":[true,true,false,true,true,true,false,false,false,true,true,true,false,false,false,false,false],"id":34,"left_children":[1,3,-1,5,7,9,-1,-1,-1,11,13,15,-1,-1,-1,-1,-1],"loss_changes":[1.6711837E-1,2.3302293E-1,0E0,4.1463503E-1,1.6198872E-1,2.2522229E-1,0E0,0E0,0E0,3.9235285E-1,6.409791E-2,3.758631E-1,0E0,0E0,0E0,0E0,0E0],"parents":[2147483647,0,0,1,1,3,3,4,4,5,5,9,9,10,10,11,11],"right_children":[2,4,-1,6,8,10,-1,-1,-1,12,14,16,-1,-1,-1,-1,-1],"split_conditions":[1.81745E4,1.02035E4,7.7092625E-2,7.369E3,1.57995E4,5.191E3,1.21614866E-1,-1.16357565E-1,7.6120775E-3,4.677E3,6.4175E3,4.458E3,1.0580259E-1,-1.1449442E-1,-1.2247331E-2,2.9370713E-3,-1.1637574E-1],"split_indices":[1,0,0,0,0,1,0,0,0,1,1,1,0,0,0,0,0],"split_type":[0,0,0,0,0,0,0,0,0,0,0,0,0,0,0,0,0],"sum_hessian":[3.253764E1,3.1199766E1,1.337872E0,2.823429E1,2.9654765E0,2.678179E1,1.4524988E0,1.6750317E0,1.2904447E0,2.4604164E1,2.1776266E0,2.2664598E1,1.9395646E0,1.056134E0,1.1214926E0,2.0991241E1,1.6733587E0],"tree_param":{"num_deleted":"0","num_feature":"2","num_nodes":"17","size_leaf_vector":"0"}},{"base_weights":[-1.6073608E-3,-1.7743206E-1,2.2971245E-2,1.5170954E-1,-3.6720294E-1,3.089287E-1,-1.8339086E-3,-2.8461513E-1,2.6179029E-2,3.360798E-1,-6.9899634E-3,-1.3953383E-1,6.1404325E-2,-3.931115E-2,-3.976093E-1,4.1787788E-1,3.678943E-3],"categories":[],"categories_nodes":[],"categories_segments":[],"categories_sizes":[],"default_left":[true,true,true,false,false,false,true,false,true,false,true,true,true,false,false,false,false],"id":35,"left_children":[1,3,5,-1,-1,-1,7,-1,9,-1,11,13,15,-1,-1,-1,-1],"loss_changes":[1.48903E-1,3.1959844E-1,2.1540685E-1,0E0,0E0,0E0,2.3610295E-1,0E0,2.8172183E-1,0E0,2.4000932E-1,2.1704009E-1,3.5929155E-1,0E0,0E0,0E0,0E0],"parents":[2147483647,0,0,1,1,2,2,6,6,8,8,10,10,11,11,12,12],"right_children":[2,4,6,-1,-1,-1,8,-1,10,-1,12,14,16,-1,-1,-1,-1],"split_conditions":[1.396E3,1.242E3,1.5405E3,4.5512863E-2,-1.1016089E-1,9.2678614E-2,1.694E3,-8.538454E-2,2.04E3,1.0082395E-1,3.3305E3,3.19E3,3.5365E3,-1.1793345E-2,-1.1928279E-1,1.2536336E-1,1.1036829E-3],"split_indices":[0,1,1,0,0,0,0,0,1,0,0,1,0,0,0,0,0],"split_type":[0,0,0,0,0,0,0,0,0,0,0,0,0,0,0,0,0],"sum_hessian":[3.2512974E1,3.2248473E0,2.9288126E1,1.2527035E0,1.9721439E0,1.4235073E0,2.7864618E1,1.6858993E0,2.6178719E1,1.648093E0,2.4530626E1,7.9955697E0,1.6535057E1,6.589057E0,1.4065129E0,1.4349141E0,1.51001425E1],"tree_param":{"num_deleted":"0","num_feature":"2","num_nodes":"17","size_leaf_vector":"0"}},{"base_weights":[-2.9035675E-5,-2.487724E-2,1.509658E-1,2.109482E-2,-3.953817E-1,4.2409998E-1,-1.8067919E-1,-2.3432268E-2,4.227451E-1,6.7548393E-3,-3.4813896E-1,-3.4211595E-2,3.5155186E-1,2.3706206E-3,-2.3929997E-1],"categories":[],"categories_nodes":[],"categories_segments":[],"categories_sizes":[],"default_left":[true,true,true,true,false,false,false,true,false,true,false,true,false,false,false],"id":36,"left_children":[1,3,5,7,-1,-1,-1,9,-1,11,-1,13,-1,-1,-1],"loss_changes":[1.2791356E-1,5.0695956E-1,5.1302254E-1,4.9263856E-1,0E0,0E0,0E0,2.498091E-1,0E0,3.5214978E-1,0E0,1.6887656E-1,0E0,0E0,0E0],"parents":[2147483647,0,0,1,1,2,2,3,3,7,7,9,9,11,11],"right_children":[2,4,6,8,-1,-1,-1,10,-1,12,-1,14,-1,-1,-1],"split_conditions":[1.139E4,7.136E3,1.8004E4,5.49E3,-1.1861451E-1,1.2723E-1,-5.420376E-2,5.383E3,1.2682354E-1,4.6065E3,-1.04441695E-1,4.1755E3,1.0546556E-1,7.111862E-4,-7.1789995E-2],"split_indices":[1,0,0,0,0,0,0,0,0,0,0,0,0,0,0],"split_type":[0,0,0,0,0,0,0,0,0,0,0,0,0,0,0],"sum_hessian":[3.209157E1,2.8273962E1,3.8176117E0,2.5991955E1,2.282008E0,1.9406039E0,1.8770078E0,2.4245724E1,1.7462293E0,2.3079302E1,1.1664236E0,2.1433496E1,1.6458046E0,1.902788E1,2.4056177E0],"tree_param":{"num_deleted":"0","num_feature":"2","num_nodes":"15","size_leaf_vector":"0"}},{"base_weights":[1.1167947E-3,-1.6052062E-2,2.3430209E-1,1.4630222E-2,-2.3644792E-1,-2.0941617E-2,4.0346822E-1,-3.4941176E-1,4.2708535E-3,1.7701656E-2,-2.856816E-1,-2.6700053E-2,4.1991892E-1,-5.977182E-2,-3.8385543E-1,1.1523666E-2,-3.335245E-1],"categories":[],"categories_nodes":[],"categories_segments":[],"categories_sizes":[],"default_left":[true,true,false,true,true,true,false,false,false,true,true,true,false,false,false,false,false],"id":37,"left_children":[1,3,-1,5,7,9,-1,-1,-1,11,13,15,-1,-1,-1,-1,-1],"loss_changes":[1.3534325E-1,2.1679835E-1,0E0,4.0451914E-1,1.0791208E-1,2.831771E-1,0E0,0E0,0E0,4.5169845E-1,5.514863E-2,2.7537683E-1,0E0,0E0,0E0,0E0,0E0],"parents":[2147483647,0,0,1,1,3,3,4,4,5,5,9,9,10,10,11,11],"right_children":[2,4,-1,6,8,10,-1,-1,-1,12,14,16,-1,-1,-1,-1,-1],"split_conditions":[1.81745E4,1.02035E4,7.029063E-2,7.369E3,1.57995E4,5.441E3,1.2104047E-1,-1.0482353E-1,1.2812561E-3,4.677E3,6.0845E3,4.458E3,1.2597568E-1,-1.7931547E-2,-1.15156636E-1,3.4571E-3,-1.00057356E-1],"split_indices":[1,0,0,0,0,0,0,0,0,1,1,1,0,0,0,0,0],"split_type":[0,0,0,0,0,0,0,0,0,0,0,0,0,0,0,0,0],"sum_hessian":[3.1866594E1,3.0548542E1,1.3180518E0,2.7634974E1,2.9135687E0,2.6185595E1,1.4493783E0,1.6756767E0,1.237892E0,2.3664497E1,2.5210974E0,2.2152634E1,1.5118636E0,1.2510703E0,1.2700272E0,2.0554436E1,1.5981982E0],"tree_param":{"num_deleted":"0","num_feature":"2","num_nodes":"17","size_leaf_vector":"0"}},{"base_weights":[8.0428086E-4,-5.9825566E-2,6.436407E-2,-7.889614E-3,-4.299604E-1,3.9743096E-1,2.6102627E-3,-5.6725737E-2,3.3521697E-1,-2.2348842E-1,5.4534793E-2,7.035591E-3,-3.397599E-1,3.612032E-1,-3.287898E-2,-6.199107E-2,2.737772E-1,-2.5499696E-1,5.8751334E-2,6.3308496E-3,-3.1062123E-1,2.9862837E-3,-3.8642675E-1,3.821672E-1,-6.7555785E-2],"categories":[],"categories_nodes":[],"categories_segments":[],"categories_sizes":[],"default_left":[true,true,true,true,false,false,true,true,false,false,true,true,false,false,true,true,false,true,true,false,false,false,false,false,false],"id":38,"left_children":[1,3,5,7,-1,-1,9,11,-1,-1,13,15,-1,-1,17,19,-1,21,23,-1,-1,-1,-1,-1,-1],"loss_changes":[1.300654E-1,3.2880107E-1,3.3775097E-1,2.9001093E-1,0E0,0E0,1.8713619E-1,2.733273E-1,0E0,0E0,3.5829127E-1,2.6061353E-1,0E0,0E0,2.3830569E-1,1.9438747E-1,0E0,1.1615981E-1,3.7634313E-1,0E0,0E0,0E0,0E0,0E0,0E0],"parents":[2147483647,0,0,1,1,2,2,3,3,6,6,7,7,10,10,11,11,14,14,15,15,17,17,18,18],"right_children":[2,4,6,8,-1,-1,10,12,-1,-1,14,16,-1,-1,18,20,-1,22,24,-1,-1,-1,-1,-1,-1],"split_conditions":[3.3815E3,3.2545E3,3.6885E3,3.168E3,-1.2898813E-1,1.19229294E-1,3.994E3,2.868E3,1.005651E-1,-6.704653E-2,4.6555E3,2.442E3,-1.0192797E-1,1.0836096E-1,5.25E3,2.319E3,8.213316E-2,4.981E3,7.136E3,1.899255E-3,-9.318637E-2,8.9588517E-4,-1.1592803E-1,1.1465016E-1,-2.0266736E-2],"split_indices":[0,0,1,1,0,0,1,1,0,0,1,0,0,0,1,0,0,1,0,0,0,0,0,0,0],"split_type":[0,0,0,0,0,0,0,0,0,0,0,0,0,0,0,0,0,0,0,0,0,0,0,0,0],"sum_hessian":[3.1752264E1,1.6280758E1,1.5471506E1,1.5173048E1,1.1077105E0,1.569693E0,1.39018135E1,1.4013154E1,1.159894E0,1.9792635E0,1.1922549E1,1.223257E1,1.7805848E0,1.9498614E0,9.972688E0,1.0327616E1,1.9049535E0,2.391834E0,7.580854E0,8.86587E0,1.4617453E0,1.1371005E0,1.2547336E0,1.5601954E0,6.0206585E0],"tree_param":{"num_deleted":"0","num_feature":"2","num_nodes":"25","size_leaf_vector":"0"}},{"base_weights":[1.2265057E-3,-2.2098546E-1,1.8950826E-2,2.6667243E-1,-7.0532425E-3,-3.8370895E-1,2.0839607E-2,3.9108846E-2,-1.848798E-1,2.8189435E-3,4.6047956E-1,3.279613E-2,-3.2827702E-1],"categories":[],"categories_nodes":[],"categories_segments":[],"categories_sizes":[],"default_left":[true,false,true,false,true,false,true,true,false,true,false,false,false],"id":39,"left_children":[1,-1,3,-1,5,-1,7,9,-1,11,-1,-1,-1],"loss_changes":[1.3183999E-1,0E0,2.011744E-1,0E0,3.123849E-1,0E0,1.1217708E-1,4.0349165E-1,0E0,2.6265767E-1,0E0,0E0,0E0],"parents":[2147483647,0,0,2,2,4,4,6,6,7,7,9,9],"right_children":[2,-1,4,-1,6,-1,8,10,-1,12,-1,-1,-1],"split_conditions":[1.1845E3,-6.629564E-2,1.411E3,8.0001734E-2,1.5055E3,-1.1511269E-1,1.8601E4,1.57995E4,-5.546394E-2,1.2668E4,1.3814387E-1,9.838839E-3,-9.848311E-2],"split_indices":[0,0,0,0,0,0,0,0,0,0,0,0,0],"split_type":[0,0,0,0,0,0,0,0,0,0,0,0,0],"sum_hessian":[3.1410898E1,1.4732064E0,2.9937693E1,1.9648628E0,2.797283E1,1.0491345E0,2.6923695E1,2.5471546E1,1.4521488E0,2.437866E1,1.0928845E0,2.3180832E1,1.1978289E0],"tree_param":{"num_deleted":"0","num_feature":"2","num_nodes":"13","size_leaf_vector":"0"}},{"base_weights":[-2.5709865E-3,-2.7921818E-2,1.5280369E-1,1.0120091E-2,-3.3842075E-1,4.035491E-1,-1.5579514E-1,-2.702096E-2,3.467774E-1,-4.2517355E-1,-8.795854E-2,1.4003367E-2,-2.3962274E-1,-3.2019556E-2,4.633644E-1,-3.8367656E-1,-1.2484085E-2,-1.5833916E-1,-3.1792928E-4],"categories":[],"categories_nodes":[],"categories_segments":[],"categories_sizes":[],"default_left":[true,true,true,true,true,false,false,true,false,false,false,true,true,true,false,false,false,false,false],"id":40,"left_children":[1,3,5,7,9,-1,-1,11,-1,-1,-1,13,15,17,-1,-1,-1,-1,-1],"loss_changes":[1.3140765E-1,3.4120262E-1,4.251852E-1,3.4004614E-1,3.105095E-2,0E0,0E0,2.191865E-1,0E0,0E0,0E0,4.6336657E-1,1.2798576E-1,8.247745E-2,0E0,0E0,0E0,0E0,0E0],"parents":[2147483647,0,0,1,1,2,2,3,3,4,4,7,7,11,11,12,12,13,13],"right_children":[2,4,6,8,10,-1,-1,12,-1,-1,-1,14,16,18,-1,-1,-1,-1,-1],"split_conditions":[1.139E4,6.89E3,1.8004E4,5.49E3,8.3135E3,1.2106474E-1,-4.6738543E-2,4.5535E3,1.04033224E-1,-1.2755208E-1,-2.6387563E-2,4.384E3,5.3085E3,1.396E3,1.3900933E-1,-1.1510297E-1,-3.7452255E-3,-4.750175E-2,-9.537879E-5],"split_indices":[1,1,0,0,0,0,0,0,0,0,0,0,0,0,0,0,0,0,0],"split_type":[0,0,0,0,0,0,0,0,0,0,0,0,0,0,0,0,0,0,0],"sum_hessian":[3.127851E1,2.7596222E1,3.682288E0,2.5446016E1,2.1502044E0,1.861822E0,1.8204659E0,2.3746021E1,1.6999952E0,1.0789367E0,1.0712678E0,2.068811E1,3.0579112E0,1.9608572E1,1.0795381E0,1.4494689E0,1.6084423E0,3.1324027E0,1.647617E1],"tree_param":{"num_deleted":"0","num_feature":"2","num_nodes":"19","size_leaf_vector":"0"}},{"base_weights":[-1.3902984E-3,-1.8672641E-2,2.333115E-1,8.278331E-3,-2.8685722E-1,-2.5060331E-2,3.368713E-1,7.0215287E-3,-4.3121183E-1,-1.9807925E-2,2.715588E-1,1.2271256E-2,-2.7561072E-1],"categories":[],"categories_nodes":[],"categories_segments":[],"categories_sizes":[],"default_left":[true,true,false,true,false,true,false,true,false,true,false,false,false],"id":41,"left_children":[1,3,-1,5,-1,7,-1,9,-1,11,-1,-1,-1],"loss_changes":[1.3450621E-1,2.2507773E-1,0E0,3.258058E-1,0E0,3.5786828E-1,0E0,1.9149211E-1,0E0,2.063983E-1,0E0,0E0,0E0],"parents":[2147483647,0,0,1,1,3,3,5,5,7,7,9,9],"right_children":[2,4,-1,6,-1,8,-1,10,-1,12,-1,-1,-1],"split_conditions":[1.81745E4,1.35465E4,6.999345E-2,8.4065E3,-8.605717E-2,6.745E3,1.010614E-1,5.49E3,-1.2936355E-1,5.247E3,8.146764E-2,3.681377E-3,-8.268322E-2],"split_indices":[1,0,0,1,0,1,0,0,0,0,0,0,0],"split_type":[0,0,0,0,0,0,0,0,0,0,0,0,0],"sum_hessian":[3.1086622E1,2.9811857E1,1.2747649E0,2.7970154E1,1.8417039E0,2.6232382E1,1.7377726E0,2.5222752E1,1.0096302E0,2.374014E1,1.4826105E0,2.1940678E1,1.7994624E0],"tree_param":{"num_deleted":"0","num_feature":"2","num_nodes":"13","size_leaf_vector":"0"}},{"base_weights":[-2.03879E-3,-2.0169258E-2,1.6501802E-1,1.7997827E-2,-2.3837219E-1,2.8968653E-1,-3.375316E-2,-1.6989185E-2,3.629199E-1,-3.6046094E-1,2.718588E-2,8.7505905E-3,-2.1972072E-1,-3.3656888E-2,3.0877814E-1,-3.027004E-4,-3.0390644E-1],"categories":[],"categories_nodes":[],"categories_segments":[],"categories_sizes":[],"default_left":[true,true,true,true,true,false,false,true,false,false,false,true,false,true,false,false,false],"id":42,"left_children":[1,3,5,7,9,-1,-1,11,-1,-1,-1,13,-1,15,-1,-1,-1],"loss_changes":[1.0013747E-1,2.5184107E-1,9.002133E-2,3.2269284E-1,1.5554905E-1,0E0,0E0,1.3117307E-1,0E0,0E0,0E0,3.0226842E-1,0E0,1.8920878E-1,0E0,0E0,0E0],"parents":[2147483647,0,0,1,1,2,2,3,3,4,4,7,7,11,11,13,13],"right_children":[2,4,6,8,10,-1,-1,12,-1,-1,-1,14,-1,16,-1,-1,-1],"split_conditions":[1.46435E4,7.136E3,1.91795E4,5.49E3,1.139E4,8.690596E-2,-1.0125948E-2,5.247E3,1.08875975E-1,-1.08138286E-1,8.155764E-3,4.5105E3,-6.591622E-2,4.1755E3,9.263344E-2,-9.081013E-5,-9.1171935E-2],"split_indices":[1,0,0,0,1,0,0,0,0,0,0,0,0,0,0,0,0],"split_type":[0,0,0,0,0,0,0,0,0,0,0,0,0,0,0,0,0],"sum_hessian":[3.0962692E1,2.8724524E1,2.2381694E0,2.5229082E1,3.4954405E0,1.0943872E0,1.1437823E0,2.3768845E1,1.4602371E0,2.1497393E0,1.3457013E0,2.1940065E1,1.82878E0,2.0000858E1,1.9392065E0,1.8694681E1,1.3061768E0],"tree_param":{"num_deleted":"0","num_feature":"2","num_nodes":"17","size_leaf_vector":"0"}},{"base_weights":[-2.7763494E-4,-5.27826E-2,5.7249922E-2,1.4449768E-2,-3.809499E-1,3.8284177E-1,3.1193915E-5,-4.9630333E-2,2.7354813E-1,-1.8734242E-1,4.5445375E-2,2.311471E-2,-3.8814887E-1,2.82475E-3,4.0602276E-1,3.030537E-1,-2.8695134E-2,-4.096596E-2,3.1973967E-1,-2.0111744E-1,7.06659E-2,6.530651E-2,-1.6402647E-1,1.873055E-2,-3.86362E-1,2.6406026E-1,-7.179186E-2],"categories":[],"categories_nodes":[],"categories_segments":[],"categories_sizes":[],"default_left":[true,true,true,true,false,false,true,true,true,false,true,true,false,false,false,false,true,true,false,true,true,false,false,false,false,false,false],"id":43,"left_children":[1,3,5,7,-1,-1,9,11,13,-1,15,17,-1,-1,-1,-1,19,21,-1,23,25,-1,-1,-1,-1,-1,-1],"loss_changes":[9.926797E-2,3.845506E-1,2.9219326E-1,2.6630896E-1,0E0,0E0,1.3054223E-1,3.303415E-1,1.1260693E-1,0E0,2.4452417E-1,2.3521927E-1,0E0,0E0,0E0,0E0,1.941254E-1,1.4797962E-1,0E0,1.7418186E-1,2.2289443E-1,0E0,0E0,0E0,0E0,0E0,0E0],"parents":[2147483647,0,0,1,1,2,2,3,3,6,6,7,7,8,8,10,10,11,11,16,16,17,17,19,19,20,20],"right_children":[2,4,6,8,-1,-1,10,12,14,-1,16,18,-1,-1,-1,-1,20,22,-1,24,26,-1,-1,-1,-1,-1,-1],"split_conditions":[3.561E3,3.19E3,3.6885E3,2.7545E3,-1.1428498E-1,1.1485253E-1,3.994E3,2.517E3,3.0395E3,-5.620273E-2,4.6555E3,2.581E3,-1.1644467E-1,8.47425E-4,1.2180683E-1,9.091611E-2,6.171E3,1.6245E3,9.5921904E-2,5.441E3,1.02035E4,1.9591954E-2,-4.9207944E-2,5.619165E-3,-1.159086E-1,7.921808E-2,-2.1537557E-2],"split_indices":[1,1,1,0,0,0,1,0,1,0,1,1,0,0,0,0,1,1,0,0,0,0,0,0,0,0,0],"split_type":[0,0,0,0,0,0,0,0,0,0,0,0,0,0,0,0,0,0,0,0,0,0,0,0,0,0,0],"sum_hessian":[3.0864502E1,1.6179802E1,1.4684701E1,1.4222064E1,1.9577377E0,1.344312E0,1.3340388E1,1.2050251E1,2.1718132E0,1.9928647E0,1.1347524E1,1.0685695E1,1.364556E0,1.0491359E0,1.1226773E0,1.8459687E0,9.501555E0,9.496117E0,1.189578E0,3.0992627E0,6.4022923E0,5.3474693E0,4.148648E0,1.8283118E0,1.2709508E0,2.3535767E0,4.0487156E0],"tree_param":{"num_deleted":"0","num_feature":"2","num_nodes":"27","size_leaf_vector":"0"}},{"base_weights":[2.0095138E-3,-1.282593E-2,2.0195042E-1,1.0537109E-2,-2.4574594E-1,-1.8701388E-2,3.0195054E-1,1.0561378E-2,-3.8442382E-1,-2.7275695E-2,1.7643636E-1,5.2059377E-3,-2.551056E-1,3.3141217E-1,-5.8089294E-2],"categories":[],"categories_nodes":[],"categories_segments":[],"categories_sizes":[],"default_left":[true,true,false,true,false,true,false,true,false,true,true,false,false,false,false],"id":44,"left_children":[1,3,-1,5,-1,7,-1,9,-1,11,13,-1,-1,-1,-1],"loss_changes":[9.6821845E-2,1.6863951E-1,0E0,2.50112E-1,0E0,2.931962E-1,0E0,1.6792265E-1,0E0,1.6433889E-1,1.9956167E-1,0E0,0E0,0E0,0E0],"parents":[2147483647,0,0,1,1,3,3,5,5,7,7,9,9,10,10],"right_children":[2,4,-1,6,-1,8,-1,10,-1,12,14,-1,-1,-1,-1],"split_conditions":[1.81745E4,1.35465E4,6.0585126E-2,8.4065E3,-7.3723786E-2,6.56E3,9.0585165E-2,4.6065E3,-1.1532715E-1,4.2775E3,5.441E3,1.5617814E-3,-7.6531686E-2,9.9423654E-2,-1.7426789E-2],"split_indices":[1,0,0,1,0,1,0,0,0,0,0,0,0,0,0],"split_type":[0,0,0,0,0,0,0,0,0,0,0,0,0,0,0],"sum_hessian":[3.0768345E1,2.9514263E1,1.2540815E0,2.7691435E1,1.8228282E0,2.6016897E1,1.6745383E0,2.4988592E1,1.0283052E0,2.102763E1,3.9609625E0,1.9259027E1,1.7686027E0,2.1362202E0,1.8247424E0],"tree_param":{"num_deleted":"0","num_feature":"2","num_nodes":"15","size_leaf_vector":"0"}},{"base_weights":[7.1276986E-4,-1.6486163E-1,1.8413566E-2,1.1746049E-1,-3.7148812E-1,3.697897E-1,-7.8006936E-3,-2.8974745E-1,2.2452017E-2,3.00954E-1,-6.1094435E-3,-2.8087592E-1,2.2513874E-2,3.462778E-1,-1.7213289E-2],"categories":[],"categories_nodes":[],"categories_segments":[],"categories_sizes":[],"default_left":[true,true,true,false,false,false,true,false,true,false,true,false,true,false,false],"id":45,"left_children":[1,3,5,-1,-1,-1,7,-1,9,-1,11,-1,13,-1,-1],"loss_changes":[9.5768526E-2,2.2776172E-1,2.7446786E-1,0E0,0E0,0E0,2.4889114E-1,0E0,2.1335693E-1,0E0,2.0371252E-1,0E0,3.1022823E-1,0E0,0E0],"parents":[2147483647,0,0,1,1,2,2,6,6,8,8,10,10,12,12],"right_children":[2,4,6,-1,-1,-1,8,-1,10,-1,12,-1,14,-1,-1],"split_conditions":[1.335E3,1.2095E3,1.4305E3,3.5238147E-2,-1.1144644E-1,1.1093691E-1,1.617E3,-8.692424E-2,1.791E3,9.028621E-2,2.1405E3,-8.426278E-2,2.5035E3,1.0388335E-1,-5.1639867E-3],"split_indices":[1,1,1,0,0,0,1,0,1,0,0,0,1,0,0],"split_type":[0,0,0,0,0,0,0,0,0,0,0,0,0,0,0],"sum_hessian":[3.0640808E1,2.1563523E0,2.8484455E1,1.0936232E0,1.062729E0,1.0676212E0,2.7416834E1,1.82556E0,2.5591274E1,1.4932796E0,2.4097994E1,1.4420786E0,2.2655916E1,1.63279E0,2.1023127E1],"tree_param":{"num_deleted":"0","num_feature":"2","num_nodes":"15","size_leaf_vector":"0"}},{"base_weights":[2.0042553E-3,-5.312131E-2,5.702964E-2,1.3414188E-2,-3.2043892E-1,3.8931862E-1,1.2208552E-3,-3.8933378E-2,3.3401278E-1,-2.6849404E-1,4.7871053E-2,1.8775657E-2,-3.0883992E-1,2.9607874E-1,-3.4239113E-2,-3.5840895E-2,2.686486E-1,4.1795754E-1,1.8935608E-2,-3.844153E-1,5.5963043E-2,2.3747528E-2,-2.8819373E-1,3.8634813E-1,-3.215413E-2],"categories":[],"categories_nodes":[],"categories_segments":[],"categories_sizes":[],"default_left":[true,true,true,true,false,false,true,true,false,false,true,true,false,true,true,true,false,false,false,false,true,false,false,false,false],"id":46,"left_children":[1,3,5,7,-1,-1,9,11,-1,-1,13,15,-1,17,19,21,-1,-1,-1,-1,23,-1,-1,-1,-1],"loss_changes":[9.8678015E-2,2.9367465E-1,3.0111596E-1,2.4774365E-1,0E0,0E0,2.0067467E-1,2.0703265E-1,0E0,0E0,2.868015E-1,1.6775048E-1,0E0,1.0956937E-1,3.7202686E-1,1.6308795E-1,0E0,0E0,0E0,0E0,2.9472333E-1,0E0,0E0,0E0,0E0],"parents":[2147483647,0,0,1,1,2,2,3,3,6,6,7,7,10,10,11,11,13,13,14,14,15,15,20,20],"right_children":[2,4,6,8,-1,-1,10,12,-1,-1,14,16,-1,18,20,22,-1,-1,-1,-1,24,-1,-1,-1,-1],"split_conditions":[3.3305E3,3.0515E3,3.5365E3,2.7795E3,-9.613168E-2,1.1679559E-1,3.718E3,2.517E3,1.00203834E-1,-8.054821E-2,4.5535E3,2.581E3,-9.265198E-2,4.298E3,5.3085E3,2.2665E3,8.0594584E-2,1.2538727E-1,5.6806826E-3,-1.15324594E-1,5.441E3,7.1242587E-3,-8.6458124E-2,1.1590444E-1,-9.64624E-3],"split_indices":[0,1,0,0,0,0,0,0,0,0,0,1,0,1,0,1,0,0,0,0,0,0,0,0,0],"split_type":[0,0,0,0,0,0,0,0,0,0,0,0,0,0,0,0,0,0,0,0,0,0,0,0,0],"sum_hessian":[3.0532772E1,1.5269787E1,1.5262984E1,1.2987108E1,2.2826788E0,1.3354851E0,1.3927499E1,1.1919452E1,1.0676563E0,1.3524777E0,1.2575022E1,1.0586398E1,1.3330537E0,2.4781237E0,1.0096897E1,9.390428E0,1.1959708E0,1.3682971E0,1.1098266E0,1.4000434E0,8.696855E0,8.3294735E0,1.0609545E0,1.1185393E0,7.578315E0],"tree_param":{"num_deleted":"0","num_feature":"2","num_nodes":"25","size_leaf_vector":"0"}},{"base_weights":[4.1589937E-3,-1.4977816E-1,2.4621869E-2,1.4346935E-1,-3.4621415E-1,2.5202075E-1,-7.248137E-3,2.9199564E-1,7.567393E-2,-4.012056E-1,2.6455943E-2,3.3337235E-1,-2.1492902E-3,-2.1296193E-1,3.2543384E-2,4.882652E-2,-3.6354166E-1,3.840619E-1,-1.108115E-2],"categories":[],"categories_nodes":[],"categories_segments":[],"categories_sizes":[],"default_left":[true,true,true,false,false,true,true,false,false,false,true,false,true,true,true,false,false,false,false],"id":47,"left_children":[1,3,5,-1,-1,7,9,-1,-1,-1,11,-1,13,15,17,-1,-1,-1,-1],"loss_changes":[1.025323E-1,2.6989257E-1,2.0877951E-1,0E0,0E0,2.84563E-3,3.5608152E-1,0E0,0E0,0E0,2.1937418E-1,0E0,1.808196E-1,1.5541974E-1,3.3063605E-1,0E0,0E0,0E0,0E0],"parents":[2147483647,0,0,1,1,2,2,5,5,6,6,10,10,12,12,13,13,14,14],"right_children":[2,4,6,-1,-1,8,10,-1,-1,-1,12,-1,14,16,18,-1,-1,-1,-1],"split_conditions":[1.3105E3,1.242E3,1.6245E3,4.3040805E-2,-1.03864245E-1,1.5405E3,1.769E3,8.75987E-2,2.270218E-2,-1.20361686E-1,2.04E3,1.00011714E-1,2.442E3,2.319E3,2.802E3,1.4647956E-2,-1.090625E-1,1.1521857E-1,-3.324345E-3],"split_indices":[0,1,1,0,0,1,0,0,0,0,1,0,0,0,1,0,0,0,0],"split_type":[0,0,0,0,0,0,0,0,0,0,0,0,0,0,0,0,0,0,0],"sum_hessian":[3.0379232E1,2.8229995E0,2.7556232E1,1.2406082E0,1.5823913E0,2.5381627E0,2.501807E1,1.5345112E0,1.0036515E0,1.1123505E0,2.390572E1,1.1297679E0,2.2775951E1,2.4923675E0,2.0283585E1,1.1568624E0,1.335505E0,1.377791E0,1.8905794E1],"tree_param":{"num_deleted":"0","num_feature":"2","num_nodes":"19","size_leaf_vector":"0"}},{"base_weights":[4.3141306E-3,-1.9163579E-2,1.4549237E-1,1.6925624E-2,-3.0100006E-1,3.6688522E-1,-1.371294E-1,-1.6591856E-2,3.3942267E-1,1.4830372E-2,-2.6444006E-1,-2.4667952E-2,2.9150057E-1,5.4444647E-3,-2.620452E-1],"categories":[],"categories_nodes":[],"categories_segments":[],"categories_sizes":[],"default_left":[true,true,true,true,false,false,false,true,false,true,false,true,false,false,false],"id":48,"left_children":[1,3,5,7,-1,-1,-1,9,-1,11,-1,13,-1,-1,-1],"loss_changes":[1.0560175E-1,2.8459737E-1,3.3433467E-1,2.791834E-1,0E0,0E0,0E0,1.8988164E-1,0E0,2.4911699E-1,0E0,1.464917E-1,0E0,0E0,0E0],"parents":[2147483647,0,0,1,1,2,2,3,3,7,7,9,9,11,11],"right_children":[2,4,6,8,-1,-1,-1,10,-1,12,-1,14,-1,-1,-1],"split_conditions":[1.139E4,7.136E3,1.8004E4,5.49E3,-9.030002E-2,1.1006557E-1,-4.113882E-2,5.247E3,1.0182681E-1,4.5105E3,-7.9332024E-2,4.1755E3,8.745018E-2,1.6333394E-3,-7.8613564E-2],"split_indices":[1,0,0,0,0,0,0,0,0,0,0,0,0,0,0],"split_type":[0,0,0,0,0,0,0,0,0,0,0,0,0,0,0],"sum_hessian":[3.0018946E1,2.647968E1,3.5392673E0,2.4307096E1,2.1725821E0,1.8174286E0,1.7218388E0,2.287792E1,1.429176E0,2.1138184E1,1.7397381E0,1.9294481E1,1.8437022E0,1.7989492E1,1.3049874E0],"tree_param":{"num_deleted":"0","num_feature":"2","num_nodes":"15","size_leaf_vector":"0"}},{"base_weights":[3.880919E-3,-2.0625123E-1,1.8713487E-2,3.1882977E-1,-4.9258564E-3,-2.2606824E-1,2.57534E-2,-5.371523E-1,1.3173835E-1,3.0354977E-1,2.3010224E-3,-2.0297122E-1,2.7626425E-2,3.362414E-1,-8.061953E-3],"categories":[],"categories_nodes":[],"categories_segments":[],"categories_sizes":[],"default_left":[true,false,true,false,true,true,true,false,false,false,true,false,true,false,false],"id":49,"left_children":[1,-1,3,-1,5,7,9,-1,-1,-1,11,-1,13,-1,-1],"loss_changes":[1.0010677E-1,0E0,2.127108E-1,0E0,1.9967283E-1,4.6960843E-1,1.6862215E-1,0E0,0E0,0E0,1.3543601E-1,0E0,2.572569E-1,0E0,0E0],"parents":[2147483647,0,0,2,2,4,4,5,5,6,6,10,10,12,12],"right_children":[2,-1,4,-1,6,8,10,-1,-1,-1,12,-1,14,-1,-1],"split_conditions":[1.135E3,-6.1875373E-2,1.3405E3,9.564894E-2,1.617E3,1.433E3,1.7305E3,-1.6114569E-1,3.9521508E-2,9.106493E-2,2.2305E3,-6.0891367E-2,2.5035E3,1.0087242E-1,-2.418586E-3],"split_indices":[0,0,1,0,1,0,1,0,0,0,0,0,1,0,0],"split_type":[0,0,0,0,0,0,0,0,0,0,0,0,0,0,0],"sum_hessian":[2.9880102E1,1.1191975E0,2.8760904E1,1.1882371E0,2.7572668E1,2.5832565E0,2.498941E1,1.1137255E0,1.469531E0,1.0156512E0,2.3973759E1,1.8625485E0,2.2111212E1,1.4189819E0,2.0692228E1],"tree_param":{"num_deleted":"0","num_feature":"2","num_nodes":"15","size_leaf_vector":"0"}},{"base_weights":[3.7425521E-3,-5.342762E-2,6.363989E-2,-4.116812E-3,-3.9028272E-1,2.9296884E-1,-7.112169E-3,-5.329247E-2,3.2353842E-1,3.5888132E-1,1.0816536E-1,-2.1027708E-1,7.433893E-2,1.3033241E-2,-2.811497E-1,1.4060166E-2,-3.3099872E-1,4.0368733E-1,-2.9632365E-2,-4.7817934E-2,2.7795297E-1,-4.1215488E-1,-2.4025954E-2,-4.0042642E-1,8.123842E-2,2.5163775E-2,-3.061211E-1,2.675312E-1,-6.1383463E-2],"categories":[],"categories_nodes":[],"categories_segments":[],"categories_sizes":[],"default_left":[true,true,true,true,false,true,true,true,false,false,false,true,true,true,true,false,false,false,true,true,false,false,false,false,true,false,false,false,false],"id":50,"left_children":[1,3,5,7,-1,9,11,13,-1,-1,-1,15,17,19,21,-1,-1,-1,23,25,-1,-1,-1,-1,27,-1,-1,-1,-1],"loss_changes":[1.0853106E-1,2.6834458E-1,2.5275645E-1,2.619479E-1,0E0,5.8400035E-3,2.271654E-1,2.1620838E-1,0E0,0E0,0E0,1.10801145E-1,3.497195E-1,2.0430103E-1,9.839687E-2,0E0,0E0,0E0,3.79029E-1,2.0543037E-1,0E0,0E0,0E0,0E0,2.1090412E-1,0E0,0E0,0E0,0E0],"parents":[2147483647,0,0,1,1,2,2,3,3,5,5,6,6,7,7,11,11,12,12,13,13,14,14,18,18,19,19,24,24],"right_children":[2,4,6,8,-1,10,12,14,-1,-1,-1,16,18,20,22,-1,-1,-1,24,26,-1,-1,-1,-1,28,-1,-1,-1,-1],"split_conditions":[3.3815E3,3.2545E3,3.884E3,3.168E3,-1.1708482E-1,3.64E3,4.677E3,2.802E3,9.706153E-2,1.076644E-1,3.244961E-2,4.458E3,5.441E3,2.581E3,2.8765E3,4.21805E-3,-9.929962E-2,1.211062E-1,6.3875E3,2.2955E3,8.338589E-2,-1.2364647E-1,-7.2077867E-3,-1.2012793E-1,1.02035E4,7.5491327E-3,-9.183633E-2,8.025936E-2,-1.841504E-2],"split_indices":[0,0,1,1,0,0,1,1,0,0,0,1,0,1,0,0,0,0,0,1,0,0,0,0,0,0,0,0,0],"split_type":[0,0,0,0,0,0,0,0,0,0,0,0,0,0,0,0,0,0,0,0,0,0,0,0,0,0,0,0,0],"sum_hessian":[2.9701067E1,1.5251751E1,1.4449316E1,1.4187172E1,1.0645794E0,2.666287E0,1.178303E1,1.3063854E1,1.1233175E0,1.271005E0,1.3952819E0,2.9194238E0,8.8636055E0,1.0848752E1,2.215103E0,1.330495E0,1.5889287E0,1.435071E0,7.4285345E0,9.488724E0,1.3600279E0,1.0680068E0,1.147096E0,1.1087624E0,6.3197722E0,8.102111E0,1.3866128E0,2.3605776E0,3.9591947E0],"tree_param":{"num_deleted":"0","num_feature":"2","num_nodes":"29","size_leaf_vector":"0"}},{"base_weights":[1.6197483E-3,-1.8770711E-2,1.8362045E-1,1.059853E-2,-2.9004794E-1,2.8177166E-1,2.269225E-3,-2.2400593E-2,3.68438E-1,1.7407404E-2,-3.385154E-1,-2.4750557E-2,3.618618E-1,-5.2887123E-2,2.66378E-1],"categories":[],"categories_nodes":[],"categories_segments":[],"categories_sizes":[],"default_left":[true,true,true,true,false,false,false,true,false,true,false,true,false,false,false],"id":51,"left_children":[1,3,5,7,-1,-1,-1,9,-1,11,-1,13,-1,-1,-1],"loss_changes":[1.1647486E-1,2.2851217E-1,5.5629745E-2,3.211327E-1,0E0,0E0,0E0,3.2303113E-1,0E0,3.478055E-1,0E0,1.9205196E-1,0E0,0E0,0E0],"parents":[2147483647,0,0,1,1,2,2,3,3,7,7,9,9,11,11],"right_children":[2,4,6,8,-1,-1,-1,10,-1,12,-1,14,-1,-1,-1],"split_conditions":[1.46435E4,1.02035E4,1.91795E4,7.369E3,-8.7014385E-2,8.45315E-2,6.807675E-4,5.191E3,1.10531405E-1,4.677E3,-1.01554625E-1,4.6065E3,1.0855854E-1,-1.5866138E-2,7.99134E-2],"split_indices":[1,0,0,0,0,0,0,1,0,1,0,0,0,0,0],"split_type":[0,0,0,0,0,0,0,0,0,0,0,0,0,0,0],"sum_hessian":[2.9456964E1,2.729575E1,2.1612163E0,2.549637E1,1.7993782E0,1.0429919E0,1.1182243E0,2.4201927E1,1.2944447E0,2.2334322E1,1.8676039E0,2.0725822E1,1.6084993E0,1.9645493E1,1.0803313E0],"tree_param":{"num_deleted":"0","num_feature":"2","num_nodes":"15","size_leaf_vector":"0"}},{"base_weights":[7.5380113E-3,-1.50346765E-2,1.4200117E-1,2.1487417E-2,-3.0332142E-1,3.3756503E-1,-1.1048506E-1,-1.1805825E-2,3.359081E-1,2.8625952E-2,-2.222261E-1,-2.9284738E-2,3.3393723E-1,-3.7308E-1,8.274765E-3,1.621694E-2,-3.5381573E-1,-1.0341333E-1,5.646522E-1],"categories":[],"categories_nodes":[],"categories_segments":[],"categories_sizes":[],"default_left":[true,true,true,true,false,false,false,true,false,true,true,true,true,false,false,false,false,false,false],"id":52,"left_children":[1,3,5,7,-1,-1,-1,9,-1,11,13,15,17,-1,-1,-1,-1,-1,-1],"loss_changes":[9.418817E-2,2.894628E-1,2.5728324E-1,2.6342252E-1,0E0,0E0,0E0,2.0525685E-1,0E0,3.72168E-1,1.3807848E-1,2.7372E-1,3.96263E-1,0E0,0E0,0E0,0E0,0E0,0E0],"parents":[2147483647,0,0,1,1,2,2,3,3,7,7,9,9,10,10,11,11,12,12],"right_children":[2,4,6,8,-1,-1,-1,10,-1,12,14,16,18,-1,-1,-1,-1,-1,-1],"split_conditions":[1.139E4,7.136E3,1.8004E4,5.49E3,-9.099643E-2,1.0126951E-1,-3.314552E-2,4.5535E3,1.0077243E-1,3.8335E3,5.3085E3,3.586E3,4.2185E3,-1.11924E-1,2.4824296E-3,4.865082E-3,-1.0614473E-1,-3.1024E-2,1.6939567E-1],"split_indices":[1,0,0,0,0,0,0,0,0,1,0,1,0,0,0,0,0,0,0],"split_type":[0,0,0,0,0,0,0,0,0,0,0,0,0,0,0,0,0,0,0],"sum_hessian":[2.9328604E1,2.5873362E1,3.4552426E0,2.3785519E1,2.0878432E0,1.7572196E0,1.6980231E0,2.2378378E1,1.40714E0,1.9496187E1,2.88219E0,1.7147732E1,2.3484569E0,1.3681964E0,1.5139937E0,1.587234E1,1.2753913E0,1.0015872E0,1.3468698E0],"tree_param":{"num_deleted":"0","num_feature":"2","num_nodes":"19","size_leaf_vector":"0"}},{"base_weights":[6.1242133E-3,-9.939954E-3,2.1311025E-1,1.493649E-2,-2.578542E-1,-1.3337658E-2,2.910988E-1,1.1368911E-2,-2.919922E-1,-1.0887517E-2,2.4483581E-1,1.5575845E-2,-2.7277288E-1],"categories":[],"categories_nodes":[],"categories_segments":[],"categories_sizes":[],"default_left":[true,true,false,true,false,true,false,true,false,true,false,false,false],"id":53,"left_children":[1,3,-1,5,-1,7,-1,9,-1,11,-1,-1,-1],"loss_changes":[1.0280109E-1,1.8303807E-1,0E0,2.1744102E-1,0E0,1.8071096E-1,0E0,1.3064884E-1,0E0,1.6672558E-1,0E0,0E0,0E0],"parents":[2147483647,0,0,1,1,3,3,5,5,7,7,9,9],"right_children":[2,4,-1,6,-1,8,-1,10,-1,12,-1,-1,-1],"split_conditions":[1.81745E4,1.35465E4,6.393308E-2,8.4065E3,-7.7356264E-2,7.136E3,8.732964E-2,5.25E3,-8.759766E-2,4.981E3,7.3450744E-2,4.6727536E-3,-8.1831865E-2],"split_indices":[1,0,0,1,0,0,0,1,0,1,0,0,0],"split_type":[0,0,0,0,0,0,0,0,0,0,0,0,0],"sum_hessian":[2.9280006E1,2.8054663E1,1.225342E0,2.6350344E1,1.7043197E0,2.4766405E1,1.5839391E0,2.3630442E1,1.1359639E0,2.2444199E1,1.1862423E0,2.1238577E1,1.2056215E0],"tree_param":{"num_deleted":"0","num_feature":"2","num_nodes":"13","size_leaf_vector":"0"}},{"base_weights":[3.9032283E-3,-1.5664598E-1,2.120908E-2,3.6744368E-1,-7.6072793E-3,-2.5816703E-1,2.7968992E-2,2.0827617E-1,-5.731994E-1,3.0513954E-1,-3.5034998E-3,-2.0301735E-1,2.9790092E-2,3.339248E-2,-3.3402225E-1,3.3147782E-1,-6.8700854E-3],"categories":[],"categories_nodes":[],"categories_segments":[],"categories_sizes":[],"default_left":[true,false,true,false,true,true,true,false,false,false,true,true,true,false,false,false,false],"id":54,"left_children":[1,-1,3,-1,5,7,9,-1,-1,-1,11,13,15,-1,-1,-1,-1],"loss_changes":[8.728034E-2,0E0,2.8373533E-1,0E0,2.4766988E-1,6.265729E-1,2.1498771E-1,0E0,0E0,0E0,1.5889832E-1,1.1703463E-1,2.3002484E-1,0E0,0E0,0E0,0E0],"parents":[2147483647,0,0,2,2,4,4,5,5,6,6,10,10,11,11,12,12],"right_children":[2,-1,4,-1,6,8,10,-1,-1,-1,12,14,16,-1,-1,-1,-1],"split_conditions":[1.335E3,-4.6993796E-2,1.411E3,1.10233106E-1,1.694E3,1.53E3,2.04E3,6.2482852E-2,-1.7195982E-1,9.1541864E-2,2.442E3,2.319E3,2.802E3,1.0017745E-2,-1.0020668E-1,9.944335E-2,-2.0610257E-3],"split_indices":[1,0,0,0,0,1,1,0,0,0,0,0,1,0,0,0,0],"split_type":[0,0,0,0,0,0,0,0,0,0,0,0,0,0,0,0,0],"sum_hessian":[2.9217674E1,2.059523E0,2.7158152E1,1.1837637E0,2.5974388E1,2.451565E0,2.3522823E1,1.1248956E0,1.3266695E0,1.5119562E0,2.2010866E1,2.4187245E0,1.9592142E1,1.1280907E0,1.2906337E0,1.2514745E0,1.8340668E1],"tree_param":{"num_deleted":"0","num_feature":"2","num_nodes":"17","size_leaf_vector":"0"}},{"base_weights":[4.0602162E-3,-1.37925185E-2,1.5608825E-1,1.45969605E-2,-2.9110453E-1,3.0390006E-1,-5.0531447E-2,-1.867524E-2,3.704971E-1,1.701946E-2,-2.9941183E-1,-2.003214E-2,3.2157138E-1,1.7319538E-2,-2.983203E-1],"categories":[],"categories_nodes":[],"categories_segments":[],"categories_sizes":[],"default_left":[true,true,true,true,false,false,false,true,false,true,false,true,false,false,false],"id":55,"left_children":[1,3,5,7,-1,-1,-1,9,-1,11,-1,13,-1,-1,-1],"loss_changes":[8.3453566E-2,2.2252606E-1,1.1397682E-1,3.160211E-1,0E0,0E0,0E0,2.538467E-1,0E0,2.6563236E-1,0E0,2.278121E-1,0E0,0E0,0E0],"parents":[2147483647,0,0,1,1,2,2,3,3,7,7,9,9,11,11],"right_children":[2,4,6,8,-1,-1,-1,10,-1,12,-1,14,-1,-1,-1],"split_conditions":[1.57995E4,1.02035E4,1.90825E4,7.369E3,-8.733136E-2,9.117002E-2,-1.5159435E-2,5.191E3,1.1114914E-1,4.677E3,-8.982355E-2,4.458E3,9.647142E-2,5.1958617E-3,-8.949609E-2],"split_indices":[0,0,0,0,0,0,0,1,0,1,0,1,0,0,0],"split_type":[0,0,0,0,0,0,0,0,0,0,0,0,0,0,0],"sum_hessian":[2.8954767E1,2.6725637E1,2.2291298E0,2.51031E1,1.6225368E0,1.0250267E0,1.2041031E0,2.3823435E1,1.2796656E0,2.1969467E1,1.8539671E0,2.0419472E1,1.5499961E0,1.8829897E1,1.5895739E0],"tree_param":{"num_deleted":"0","num_feature":"2","num_nodes":"15","size_leaf_vector":"0"}},{"base_weights":[3.9787656E-3,-4.94857E-2,6.1369587E-2,9.284706E-3,-3.1959045E-1,3.5016856E-1,-5.692282E-3,-3.548289E-2,2.5855976E-1,-2.4286953E-1,4.3981403E-2,1.3908235E-2,-2.7454376E-1,2.555729E-1,-1.8483393E-2,-4.3850414E-2,2.844543E-1,-2.601785E-1,4.820173E-2,1.3116255E-2,-2.4828994E-1,2.1184231E-1,-4.6857934E-2],"categories":[],"categories_nodes":[],"categories_segments":[],"categories_sizes":[],"default_left":[true,true,true,true,false,false,true,true,false,false,true,true,false,false,true,true,false,false,true,false,false,false,false],"id":56,"left_children":[1,3,5,7,-1,-1,9,11,-1,-1,13,15,-1,-1,17,19,-1,-1,21,-1,-1,-1,-1],"loss_changes":[9.4786994E-2,2.5749516E-1,2.8994396E-1,1.6697516E-1,0E0,0E0,1.6442962E-1,1.5574531E-1,0E0,0E0,1.5852764E-1,1.9398299E-1,0E0,0E0,1.7237826E-1,1.24825805E-1,0E0,0E0,1.4395718E-1,0E0,0E0,0E0,0E0],"parents":[2147483647,0,0,1,1,2,2,3,3,6,6,7,7,10,10,11,11,14,14,15,15,18,18],"right_children":[2,4,6,8,-1,-1,10,12,-1,-1,14,16,-1,-1,18,20,-1,-1,22,-1,-1,-1,-1],"split_conditions":[3.561E3,3.19E3,3.7035E3,3.0395E3,-9.587714E-2,1.0505057E-1,3.994E3,2.802E3,7.7567935E-2,-7.286086E-2,4.6555E3,2.474E3,-8.236313E-2,7.667187E-2,5.3085E3,2.319E3,8.533629E-2,-7.805356E-2,6.89E3,